-0.0548209622502327,0.008631261065602303,0.04645130783319473,0.13931222259998322,0.012908407486975193,-0.004757026210427284,-0.07998856157064438,0.06522223353385925,-0.03422124311327934,-0.08508320152759552,0.12980917096138,-0.10572275519371033,-0.07713143527507782,-0.12107958644628525,-0.06930503994226456,-0.03136683627963066,-0.0012078301515430212,-0.03698855638504028,0.12010525166988373,-0.06560982763767242,0.05252718925476074,0.06959566473960876,0.008783940225839615,-0.02571791596710682,0.03929693624377251,-0.009471037425100803,-0.018526751548051834,0.03887415677309036,0.03019038774073124,0.08281305432319641,0.058004915714263916,0.07951019704341888,-0.0168959591537714,0.027002869173884392,0.0055963643826544285,0.022613579407334328,-0.012914208695292473,-0.025894809514284134,-0.027974674478173256,0.0004258020780980587,-0.06779106706380844,0.007902397774159908,-0.05651003122329712,0.007191398646682501,-0.04495818540453911,-0.037372712045907974,-0.024218246340751648,-0.10281480103731155,-0.07279093563556671,0.08643189072608948,-0.004919005092233419,0.1034831628203392,-0.06830085068941116,0.06033165752887726,0.021224338561296463,0.0389096736907959,-0.0025289575569331646,-0.17598946392536163,0.01055977214127779,0.015281802043318748,-0.08264204114675522,-0.007343044504523277,-0.06119183450937271,-0.04865897446870804,0.02238854393362999,-0.03394585847854614,0.09501391649246216,-0.18570369482040405,0.03971068933606148,0.012611144222319126,0.09851351380348206,-0.0040068975649774075,-0.0697069764137268,0.029005141928792,-0.055252805352211,-0.001238522119820118,-0.00279329065233469,0.11407580226659775,0.07270374894142151,-0.03707324340939522,0.004165545105934143,0.04582224413752556,-0.012113352306187153,0.0015122181503102183,-0.014607874676585197,0.0032936593051999807,-0.030296286568045616,0.1293453574180603,0.05031377449631691,-0.06209380924701691,0.011043239384889603,-0.07304225116968155,-0.026696976274251938,0.06998561322689056,-0.03240498900413513,-0.07606997340917587,0.06419198960065842,-0.042001061141490936,0.09684018045663834,-0.011664402671158314,0.035471078008413315,0.044022612273693085,0.06701843440532684,0.022848021239042282,0.008513935841619968,0.11325263231992722,0.012732690200209618,-0.018232224509119987,-0.019665036350488663,0.008334415964782238,0.053191278129816055,-0.19120973348617554,-0.1222032830119133,0.01685912348330021,-0.11367093771696091,-0.015445915050804615,-0.04670429602265358,-0.006107519380748272,-0.004303344059735537,-0.015232130885124207,-0.03627719357609749,0.02933378331363201,-0.08736654371023178,0.18419970571994781,0.045858193188905716,0.040019333362579346,-0.016792863607406616,0.006495235022157431,-0.08323416858911514,-0.02430383302271366,-0.042662546038627625,-0.014008186757564545,0.08333584666252136,-0.025629885494709015,-0.05674903839826584,-0.02439199760556221,0.2127186506986618,0.13818904757499695,0.024136854335665703,0.1845325529575348,-0.03130195289850235,0.05399515479803085,-0.018292732536792755,0.04770338535308838,-0.0160218458622694,-0.10750585049390793,-0.029639843851327896,0.02915479987859726,-0.04674476757645607,0.026503972709178925,0.0668519139289856,0.07782310992479324,-0.03235864266753197,0.02440929412841797,-0.05186319351196289,0.024921666830778122,-0.07449334114789963,0.027524331584572792,0.03399115800857544,0.009465295821428299,-0.025063753128051758,-0.04696604236960411,0.045642223209142685,0.025065157562494278,-0.024812133982777596,-0.01802995800971985,0.0176016166806221,0.0974012166261673,-0.11393716186285019,-0.08230166137218475,0.15063190460205078,-0.10251076519489288,0.00933158677071333,-0.04247654229402542,-0.03298148140311241,-0.06990548223257065,0.033063117414712906,0.006029400508850813,0.13077719509601593,-0.0476863794028759,0.01801651157438755,-0.033872559666633606,0.03207620605826378,-0.07343199104070663,-0.11213317513465881,0.0352904312312603,-0.08152678608894348,0.0011403856333345175,0.07415620982646942,-0.05084962025284767,-0.11157607287168503,-0.11901707947254181,-0.008074027486145496,-0.012925386428833008,0.13650649785995483,0.16997645795345306,-0.030989622697234154,-0.08226186782121658,-0.1348324716091156,0.012873268686234951,0.015517675317823887,0.012884124182164669,0.020140213891863823,-0.00483216717839241,-0.08348210901021957,-0.05030388385057449,-0.09509329497814178,0.05724646896123886,-0.03057806007564068,-0.10101461410522461,-0.024721061810851097,0.06429141759872437,-0.020079558715224266,0.12993600964546204,-0.02045482210814953,0.008396665565669537,0.012548243626952171,0.05203607678413391,0.0049758609384298325,0.017985304817557335,-0.012867017649114132,0.018898924812674522,0.04151920974254608,0.0716267079114914,0.023763537406921387,-0.006723863072693348,-0.05395881086587906,-0.04095818102359772,0.16845443844795227,-0.07903286069631577,-0.04317505657672882,0.00940812285989523,0.06466906517744064,-0.022432737052440643,-0.008965208195149899,-0.07459017634391785,-0.02984190359711647,-0.03963253274559975,0.003231980837881565,-0.08394033461809158,0.10017438232898712,-0.07130523771047592,0.11418469995260239,-0.048071786761283875,0.0003284419944975525,0.06063756346702576,0.09931858628988266,0.04555695131421089,-0.022563736885786057,0.14098775386810303,0.1203003004193306,0.04577559232711792,-0.07335153967142105,-0.07971211522817612,-0.010425740852952003,-0.03955188766121864,0.030073117464780807,0.029202518984675407,-0.03648260235786438,-0.010414540767669678,-0.05533504858613014,-0.004688740242272615,0.035092275589704514,-0.008954735472798347,0.1956775188446045,0.012845614925026894,-0.014498027041554451,-0.04481661692261696,0.14117170870304108,-0.0676102340221405,-0.03199170157313347,-0.007156466133892536,-0.035014402121305466,0.05128946900367737,-0.06825857609510422,-0.2001756727695465,-0.04694794490933418,-0.0780816301703453,0.09886493533849716,-0.004520125221461058,0.1389762908220291,-0.005883117206394672,-0.15267986059188843,-0.024274107068777084,0.007315178867429495,-0.04764734208583832,-0.10327992588281631,-0.00223270314745605,-0.03275597468018532,0.0323067307472229,-0.020407654345035553,-0.032310664653778076,-0.0431479886174202,-0.022078584879636765,0.0010495624737814069,-0.02656647004187107,-0.0855434462428093,0.003682559123262763,0.034903254359960556,0.025929035618901253,-0.09461662173271179,-0.011363465338945389,-0.037544380873441696,0.023545434698462486,-0.08486520498991013,-0.0312955379486084,0.16822685301303864,0.040553346276283264,0.08771182596683502,0.026707641780376434,0.05538520589470863,0.08288463205099106,-0.05941370874643326,0.13769300282001495,-0.031187286600470543,0.019993465393781662,-0.015350308269262314,-0.10194210708141327,0.03363761678338051,-0.06370078027248383,-0.1444430649280548,-0.01797430031001568,0.013509928248822689,-0.12365512549877167,0.02596190758049488,-0.01576163060963154,0.09611152857542038,-0.10239851474761963,-0.036221813410520554,-0.047393713146448135,-0.18189971148967743,0.060530245304107666,0.14561504125595093,-0.07851451635360718,0.013544654473662376,-0.04001915827393532,0.05305657163262367,-0.03988266363739967,-0.03789917007088661,0.05995349958539009,-0.0912594273686409,-0.08882847428321838,-0.018009541556239128,-0.009026008658111095,-0.014571353793144226,0.022294344380497932,0.014604278840124607,-0.009263882413506508,0.027897946536540985,0.00190478446893394,0.015282092615962029,-0.025988593697547913,-0.0923367589712143,-0.20877645909786224,-0.10626356303691864,-0.0007866075029596686,0.027781415730714798,0.03192087262868881,-0.007318779826164246,-0.0634782686829567,-0.022119008004665375,0.024836361408233643,0.09147299081087112,0.01657496765255928,-0.09314766526222229,-0.05305870249867439,0.039719343185424805,-0.03661688417196274,-0.017131641507148743,-0.0814790204167366,0.1569567620754242,0.07471136003732681,-0.08856043964624405,-0.08196575194597244,-0.10753017663955688,3.4949090377267567e-07,-0.08049361407756805,-0.06089870631694794,-0.08460662513971329,-0.031763955950737,0.049684084951877594,-0.05918112024664879,0.0032487905118614435,0.040286045521497726,-0.031538333743810654,0.10381197929382324,0.015427765436470509,0.055285509675741196,0.03387167677283287,-0.049686532467603683,-0.14761513471603394,-0.07474668323993683,-0.011466104537248611,0.006022419780492783,0.01829245500266552,0.08547601848840714,0.03897470235824585,0.03208412975072861,0.022799761965870857,-0.17620210349559784,-0.04159585013985634,0.02354373037815094,-0.03902166336774826,-0.03738454729318619,0.029087135568261147,-0.011683929711580276,-0.014150657691061497,-0.0033066722098737955,-0.17012526094913483,-0.02019673027098179,-0.055080585181713104,-0.01921258121728897,-0.04819672182202339,0.0019290766213089228,0.05823104828596115,0.10421840846538544,-0.10321525484323502,0.1806318759918213,-0.07458658516407013,0.11959824711084366,-0.026411959901452065,-0.00961361639201641,0.04446769878268242,0.014618666842579842,-0.11315742135047913,0.023292530328035355,0.010702039115130901,-0.014210319146513939,0.1276104897260666,0.09095591306686401,0.12851719558238983,-0.017556585371494293,-0.07734832167625427,-0.008041110821068287,0.09246960282325745,-0.05266420543193817,-0.06491874903440475,0.002979324199259281,0.02802567556500435,-0.08661719411611557,0.10261016339063644,0.10154642909765244,0.0471363291144371,0.10334335267543793,-0.029868338257074356,-0.03882555291056633,0.014439224265515804,-0.125225231051445,-0.05790321156382561,-0.020021066069602966,-0.04230630770325661,-0.006991641595959663,-0.03409498929977417,0.1337096095085144,-0.07558947801589966,0.019820082932710648,-0.09479645639657974,0.04904816672205925,-0.06097468361258507,0.043961051851511,-0.039004191756248474,0.004863952752202749,-0.027367107570171356,-0.05867357552051544,0.1381712108850479,-0.10474327951669693,-0.03794446960091591,-0.10442760586738586,-0.03269654139876366,-0.07249069213867188,0.06157952547073364,0.08676242083311081,-0.06289999932050705,-0.03804788365960121,0.020561011508107185,0.09430105239152908,0.15149278938770294,0.015325477346777916,0.03604939952492714,-0.0020608846098184586,0.18133944272994995,-0.08632250130176544,0.07104156911373138,0.00014921753609087318,0.03727345913648605,-0.029443960636854172,-0.010390076786279678,-0.03509165346622467,-0.07982582598924637,-0.12946465611457825,-0.04111047834157944,0.01766529679298401,-0.021076027303934097,0.024699071422219276,0.02899935096502304,-0.07925590127706528,-0.019901093095541,-0.10863889753818512,-0.03743090480566025,0.029805148020386696,0.14451149106025696,0.00551304267719388,0.04185410588979721,-0.04543342813849449,-0.04957105219364166,-0.027115194126963615,0.014695875346660614,-0.08303696662187576,0.044353362172842026,-0.057255350053310394,-0.157777339220047,0.00126061646733433,0.02364031970500946,-0.034303829073905945,-0.0182778462767601,0.09193320572376251,-0.06544508039951324,-0.023842431604862213,0.032286640256643295,-0.008295022882521152,-0.12066473066806793,-0.049448493868112564,0.04601508006453514,0.028840234503149986,-0.12865975499153137,0.03505993261933327,0.15284214913845062,0.024815037846565247,0.03533496335148811,-0.007373329717665911,-0.04724648594856262,-0.1770196408033371,-0.0013897509779781103,0.12901945412158966,0.13427959382534027,-0.06014786660671234,-0.07127387821674347,-0.012987068854272366,0.07766476273536682,0.0003204280510544777,0.07410668581724167,-0.07030940055847168,-0.014083247631788254,0.11957821249961853,-0.08385837823152542,0.07106830924749374,-0.0403461717069149,-0.1063271090388298,-0.09329542517662048,0.03125026077032089,0.13519300520420074,0.07825430482625961,-0.01806817762553692,0.03099483624100685,-0.013816499151289463,-0.044806789606809616,-0.00471474090591073,-0.048950280994176865,-0.013861930929124355,0.04586927965283394,-0.033622171729803085,-0.058904096484184265,0.0036219460889697075,-0.06675835698843002,-0.054386988282203674,-0.010648283176124096,0.01040562056005001,0.040456853806972504,-0.02772194892168045,-0.06968100368976593,0.14923541247844696,0.025930266827344894,0.016652842983603477,-0.08481425791978836,-0.06362618505954742,-0.0431901291012764,0.023805376142263412,-0.09281045198440552,0.016226986423134804,-0.010488676838576794,0.09342388063669205,-0.058672722429037094,-0.0028931372798979282,-0.0637739896774292,-0.01970089226961136,0.06735896319150925,-0.014622952789068222,-0.016166018322110176,-0.07526478171348572,-0.10074208676815033,0.07661055028438568,0.12093307822942734,0.09188316762447357,-0.03150032088160515,-0.10000003129243851,0.0019512907601892948,0.019146723672747612,0.0008116652606986463,-0.024434320628643036,0.03134297952055931,0.04647205024957657,-0.10907429456710815,-0.06314390897750854,-0.10457146912813187,0.09167908877134323,0.11057193577289581,0.008470401167869568,0.044569071382284164,-0.051178228110075,-0.009839192032814026,0.07682836055755615,0.04964030534029007,-0.020457154139876366,-0.04842723533511162,-0.06977561861276627,0.02668599598109722,-0.02806496061384678,-0.012888805940747261,-0.07977510243654251,0.1259452849626541,0.02923850528895855,0.044589657336473465,-0.008681215345859528,0.002430493012070656,0.020199518650770187,0.015386409126222134,-0.04279863089323044,0.02945617586374283,0.049359358847141266,-0.13256658613681793,0.008244453929364681,0.023307809606194496,-0.012622566893696785,-0.046081602573394775,-0.0341753289103508,0.17233401536941528,-0.0735422670841217,-0.022875754162669182,0.09424500912427902,-0.046816740185022354,0.060103680938482285,-0.019479170441627502,0.1428878754377365,-0.04731398820877075,-0.00763334846124053,-0.10395710915327072,0.07784560322761536,0.06380023062229156,0.02680111676454544,-0.11796840280294418,-0.03889903426170349,-0.07262620329856873,-0.08135911077260971,-0.16295014321804047,0.08216783404350281,-0.0053175874054431915,-0.0014847974525764585,-0.014234009198844433,0.06126634404063225,-0.06355011463165283,-0.02321433275938034,0.03494412824511528,-0.02370152249932289,0.00522693432867527,0.030854877084493637,0.020817968994379044,0.07332667708396912,-0.020500971004366875,0.07856973260641098,0.18892942368984222,-0.036966633051633835,-0.06539692729711533,-0.032848987728357315,-0.10167904198169708,-0.049761634320020676,-0.01737220771610737,-0.021101213991642,0.005621147807687521,-0.05765204131603241,-0.043127305805683136,0.1380254626274109,-0.13144533336162567,-0.07891065627336502,-0.06145015358924866,-0.058657653629779816,-0.15052559971809387,-0.09517423808574677,-0.031826771795749664,0.03501278534531593,0.026929538697004318,0.02464458905160427,0.0019378288416191936,-0.13887564837932587,-0.07956640422344208,0.034293096512556076,0.06779971718788147,-0.05880310758948326,-0.0775442123413086,0.008311388082802296,-0.007270422298461199,-0.046957485377788544,0.07055558264255524,-0.04065016284584999,-0.014371913857758045,-0.08422674238681793,0.10064902156591415,0.02445445954799652,0.0556463785469532,-0.004719845950603485,-0.029433371499180794,-0.04027329385280609,0.01631252095103264,0.028781650587916374,0.00032102069235406816,-0.0921083614230156,-0.03433522954583168,-0.08014146238565445,0.05952811986207962,-0.0038107759319245815,0.018025949597358704,-0.12167199701070786,-0.015401743352413177,-0.04048094525933266,0.05525847151875496,-0.09704983234405518,-0.010911600664258003,-0.073963962495327,0.08566684275865555,0.1686398983001709,-0.007911000400781631,0.00528301764279604,0.07514429837465286,-0.012979012914001942,-0.09632033109664917,-0.030144767835736275,-0.0752887949347496,0.04606979712843895,-0.06313899904489517,0.030260613188147545,0.10675013810396194,-0.09534181654453278,0.02147809974849224,-0.011887026950716972,-0.07530727982521057,0.06775201857089996,-0.005241046659648418,-0.020863890647888184,-0.09027345478534698,-0.02355465665459633,0.010302714072167873,-0.08172445744276047,-0.12105560302734375,-0.22204482555389404,-0.01414049044251442,-0.033954158425331116,-0.1578044593334198,-0.051498088985681534,0.053219687193632126,-0.006227720063179731,-0.011362551711499691,-0.0546768456697464,-0.04688730090856552,-0.03030792623758316,-0.0038189003244042397,0.0030629062093794346,-0.01776041090488434,-0.036431729793548584,0.01035342551767826,0.08777155727148056,0.01052171178162098,0.0918406993150711,-0.028907300904393196,0.08502320945262909,-0.01083421427756548,0.05104416236281395,-0.022857630625367165,-0.02691911906003952,0.017835162580013275,-0.07689674198627472,0.07243913412094116,0.07171373069286346,-0.054114412516355515,0.1074482873082161,-0.06624165177345276
0.06129638850688934,0.15876111388206482,-0.1371106058359146,-0.030177829787135124,-0.016972733661532402,-0.0032384677324444056,0.09098738431930542,-0.07748682051897049,-0.030242234468460083,-0.024622265249490738,0.009351965971291065,0.034418508410453796,-0.03610219806432724,-0.09389542788267136,-0.11536036431789398,-0.019169921055436134,-0.053150661289691925,0.014724315144121647,-0.16800810396671295,0.09464958310127258,0.08014314621686935,-0.0940035805106163,0.08656769245862961,-0.0010479597840458155,-0.1686430275440216,-0.043664705008268356,-0.028269773349165916,0.023281428962945938,-0.029956864193081856,-0.04856147989630699,0.18871094286441803,-0.023187389597296715,-0.06325579434633255,-0.014298512600362301,0.007328136824071407,-0.027319882065057755,0.12042508274316788,-0.0026179831475019455,0.023633282631635666,0.060876280069351196,0.13616688549518585,-0.031518321484327316,-0.08002018928527832,-8.079368126345798e-05,-0.04122844338417053,-0.005573350470513105,0.031401727348566055,-0.00746959401294589,-0.05439005419611931,-0.03046601265668869,0.08597957342863083,-0.1797865778207779,-0.05895416811108589,0.015470923855900764,0.01600828394293785,-0.012867411598563194,-0.009627449326217175,0.006982417311519384,-0.09214576333761215,0.019698534160852432,0.029545633122324944,-0.05419778451323509,-0.016161438077688217,-0.028794698417186737,-0.00439357990399003,-0.06809511035680771,-0.010616138577461243,0.17619113624095917,0.030193079262971878,-0.0011399020440876484,0.060214705765247345,-0.03381246700882912,0.1210571750998497,-0.011833962053060532,-0.050325460731983185,-0.025118470191955566,-0.029660679399967194,-0.03993278369307518,0.019490106031298637,0.01086131576448679,-0.007954155094921589,-0.038304753601551056,0.03297026455402374,0.10217438638210297,0.023298949003219604,-0.06935030966997147,0.16287247836589813,-0.08167402446269989,0.033219292759895325,0.16894428431987762,0.12804009020328522,0.049264825880527496,-0.03145620971918106,-0.09494614601135254,0.015861280262470245,0.17275750637054443,-0.08709888160228729,-0.013749077916145325,-0.06685139238834381,0.007175534497946501,0.1505618691444397,0.054352253675460815,-0.05814998969435692,0.011925202794373035,0.0066420347429811954,-0.18166877329349518,-0.019993355497717857,-0.012603835202753544,0.15562282502651215,0.06444990634918213,0.048669442534446716,0.21414849162101746,0.00028788275085389614,-0.018241574987769127,-0.03202500939369202,0.07327323406934738,0.15996290743350983,-0.08670616894960403,-0.02848806232213974,-0.03771800175309181,0.010875968262553215,-0.009549894370138645,0.04014523699879646,-0.08216792345046997,-0.018294911831617355,-0.0316481813788414,-0.07665441185235977,-0.0006651724106632173,-0.11920682340860367,-0.10710050165653229,0.03164415434002876,-0.06689976155757904,0.02501179277896881,0.06816837936639786,0.1128084734082222,0.04105140641331673,-0.005347755737602711,-0.08244934678077698,0.11023632436990738,-0.08873540908098221,-0.012126182205975056,-0.015151684172451496,-0.01680072396993637,0.07156094163656235,-0.003975453320890665,0.09738416224718094,-0.05886697396636009,0.08446455746889114,-0.026716943830251694,-0.018674708902835846,-0.10602438449859619,0.007762519642710686,0.03254710137844086,0.030356522649526596,0.05427224189043045,0.016815871000289917,0.11494089663028717,0.09895918518304825,-0.02217540703713894,-0.10105938464403152,-0.021295569837093353,0.043731849640607834,-0.026822766289114952,0.020147759467363358,-0.008900165557861328,0.034157894551754,0.0022255044896155596,-0.12309953570365906,-0.02467600256204605,0.0645870789885521,-0.07055238634347916,0.006177706178277731,-0.097170390188694,-0.11239807307720184,-6.686494452878833e-05,0.0010475639719516039,-0.04002327099442482,-0.03057952970266342,-0.13600072264671326,0.04262315481901169,0.06653326004743576,0.03246272727847099,0.08527599275112152,-0.06318365037441254,0.01624887064099312,-0.11168017238378525,-0.038781002163887024,-0.029125677421689034,-0.12214704602956772,0.11162880808115005,-0.024616818875074387,0.1363149881362915,0.014604980126023293,0.0010594355408102274,-0.006346588023006916,-0.03996036946773529,-0.0016269265906885266,0.015522840432822704,0.015559338964521885,0.08978122472763062,-0.010539312846958637,-0.02613992430269718,-0.009728072211146355,0.005269828252494335,0.05997306481003761,0.016238786280155182,0.013362998142838478,-0.0581645667552948,0.10812324285507202,0.02099813148379326,0.003560394514352083,0.01978561095893383,0.0027903830632567406,0.01089535839855671,0.031075941398739815,-0.007786927279084921,-0.005358249880373478,-0.038155220448970795,-0.017177429050207138,-0.031120311468839645,-0.0008459793170914054,0.16791276633739471,0.17458665370941162,-0.08995113521814346,-0.051452308893203735,-0.0346076525747776,0.08273392170667648,-0.03793010860681534,-0.12117455899715424,0.017182324081659317,0.06719721853733063,-0.11891508102416992,-0.0839526504278183,0.016251957044005394,-0.011212448589503765,-0.06729672104120255,0.025444447994232178,0.0831630602478981,0.011439593508839607,0.01731049083173275,-0.14336621761322021,0.016178928315639496,-0.08449307084083557,0.029571153223514557,-0.02440396323800087,0.03042297624051571,-0.16544778645038605,0.05340564250946045,0.09969065338373184,0.005591072142124176,-0.09307137131690979,-0.15940624475479126,0.0881698951125145,-0.060185059905052185,-0.019147342070937157,-0.01156992930918932,-0.1804298311471939,-0.09834929555654526,-0.0181933231651783,-0.01374103594571352,-0.041032906621694565,-0.08032718300819397,-0.011901570484042168,-0.03386577218770981,-0.13973572850227356,-0.006586420815438032,0.019753893837332726,0.10854897648096085,-0.11324426531791687,0.06793637573719025,0.12311998009681702,0.01633882336318493,0.010318011045455933,0.0866263210773468,0.06342107802629471,0.17371273040771484,-0.012881537899374962,-0.028147496283054352,-0.11760252714157104,-0.05311824381351471,-0.13817402720451355,0.14521054923534393,-0.12119236588478088,0.01892543025314808,-0.01751851849257946,0.06984038650989532,0.03897714242339134,-0.027472637593746185,-0.005567708984017372,-0.06073984503746033,0.11338762193918228,-0.0019737202674150467,-0.007745000533759594,0.032721683382987976,0.03681985288858414,0.007644014898687601,-0.09912912547588348,-0.05731821060180664,0.0032118612434715033,0.003768577938899398,-0.11496760696172714,-0.02012331783771515,-0.05201290175318718,-0.023535441607236862,-0.006692014168947935,0.029630867764353752,-0.17369091510772705,-0.0015815661754459143,-0.05366765335202217,0.01981891505420208,0.006780426017940044,0.01131846010684967,-0.06986293196678162,-0.21619091928005219,0.12389102578163147,0.010620508342981339,0.06823788583278656,0.031967200338840485,-0.00790479313582182,0.18454356491565704,0.1364336460828781,0.0019133967580273747,0.0875399261713028,-0.03680171072483063,-0.010182795114815235,0.04883331060409546,0.1237398311495781,-0.03372293710708618,0.02883284166455269,-0.01853915862739086,0.07541774958372116,-0.08174528926610947,0.017859729006886482,0.011623432859778404,0.07330930978059769,0.04859978333115578,-0.09579899162054062,0.052344053983688354,0.05204949155449867,-0.11402957886457443,0.1154690757393837,0.1190878227353096,0.0449507012963295,-0.03533018007874489,0.013383009470999241,-0.07644228637218475,0.001346253207884729,0.022925425320863724,-0.031020427122712135,-0.035177722573280334,0.011439299210906029,0.01949215494096279,0.0031704569701105356,0.13736458122730255,0.08670593053102493,-0.014128537848591805,-0.03280335292220116,0.02225336991250515,0.032547157257795334,0.06748140603303909,0.01199149526655674,-0.047931380569934845,0.05495753139257431,0.0053398823365569115,-0.03541438654065132,0.08455643802881241,0.050414569675922394,0.054544176906347275,0.047915730625391006,-0.03470223769545555,-0.021291280165314674,-0.08434746414422989,-0.004874671809375286,0.11743467301130295,-0.098369300365448,-0.021801143884658813,-0.032944343984127045,-0.036843545734882355,0.1108393594622612,0.060096949338912964,-0.022199200466275215,-0.03927706554532051,0.0723176896572113,-0.033541902899742126,0.031800828874111176,-0.11386038362979889,-0.13163168728351593,-0.053459588438272476,-0.031781408935785294,0.028020020574331284,0.18833792209625244,0.044542841613292694,-0.018671046942472458,0.0934118703007698,-0.00326408795081079,-0.09668581932783127,-0.1909046471118927,-0.02349591813981533,-0.009672080166637897,-0.07336229830980301,-0.1505398452281952,0.026390204206109047,-0.03268175944685936,0.09079219400882721,0.027876004576683044,-0.001627361518330872,0.0025153944734483957,0.013804461807012558,0.028081215918064117,-0.0018744682893157005,0.008172820322215557,0.09128408133983612,0.014366279356181622,-0.03155103698372841,-0.047254778444767,-0.1118815690279007,0.14158840477466583,-0.06368368864059448,-0.11586260050535202,0.010758128948509693,-0.03867229446768761,0.06487462669610977,-0.01337421778589487,0.01705118827521801,0.07290364056825638,-0.06086325645446777,0.053610026836395264,0.014064107090234756,-0.07711492478847504,0.035777900367975235,0.005106303840875626,0.000407234241720289,-0.10066960006952286,-0.032535064965486526,-0.09811031073331833,-0.008558303117752075,0.10063336789608002,0.041429728269577026,0.022113751620054245,0.13875706493854523,0.02099672704935074,0.020561495795845985,0.011765812523663044,-0.03410045802593231,-0.03150656074285507,0.03235957771539688,-0.06245091184973717,0.023610945791006088,0.14585112035274506,4.417580203153193e-05,0.10396193712949753,0.04529254138469696,0.07047837972640991,-0.1268678456544876,-0.03281177580356598,-0.14655224978923798,0.052408307790756226,-0.01319637056440115,0.01990525610744953,-0.07344558835029602,-0.006600983906537294,-0.10768447071313858,0.004933333955705166,0.06961626559495926,-0.03500586375594139,0.08000741899013519,0.058856554329395294,0.053402919322252274,0.05667518824338913,0.1457299292087555,-0.06770338863134384,-0.12399178743362427,-0.015022016130387783,-0.026537608355283737,-0.015963716432452202,0.026789963245391846,-0.16287171840667725,0.06125558912754059,-0.15993286669254303,0.03659066557884216,-0.024478718638420105,0.000888305134139955,0.0336717888712883,-0.0945877879858017,-0.07275806367397308,0.1250625103712082,0.02550153061747551,0.030186256393790245,0.03741726279258728,0.014999395236372948,0.14962399005889893,0.024928202852606773,-0.03725886344909668,-0.017243850976228714,-0.0396784208714962,-0.03012261539697647,-0.008122880011796951,0.17786246538162231,0.05614497512578964,-0.021262113004922867,-0.03159172087907791,-0.029494009912014008,-0.05232982710003853,0.09934161603450775,0.07997433096170425,-0.08135662227869034,0.04386847838759422,0.09282515943050385,0.038644466549158096,-0.02913334034383297,-0.1069476380944252,0.11879099905490875,0.06772683560848236,0.027342932298779488,0.032769136130809784,-0.009353555738925934,0.05998848378658295,-0.13064654171466827,-0.015963692218065262,0.08455102890729904,0.14675362408161163,-0.01739317737519741,-0.0001226717868121341,-0.027950551360845566,0.1821465939283371,-0.12591341137886047,-0.04877201095223427,-0.04991753026843071,0.0024313898757100105,0.08167190104722977,-0.010095438919961452,0.15418118238449097,-0.02007181942462921,-0.03922251984477043,-0.13021151721477509,0.08444102108478546,0.03851202502846718,-0.015071092173457146,-0.02870713174343109,-0.02764722891151905,-0.044202644377946854,0.06378510594367981,0.037195317447185516,-0.05081354081630707,-0.006857795175164938,-0.10887019336223602,0.08965763449668884,-0.032496847212314606,0.12893186509609222,0.02916114032268524,-0.07680275291204453,0.04721697419881821,0.018006151542067528,-0.0016751489602029324,-0.018691539764404297,-0.05982466787099838,0.04829603061079979,-0.02300870418548584,-0.00960943941026926,-0.09258073568344116,-0.08593820035457611,-0.057888757437467575,0.027591580525040627,0.1247483417391777,0.0822148248553276,0.02052498422563076,0.019100788980722427,0.0390644334256649,0.02285042405128479,0.10446318984031677,0.04553394019603729,-0.025871071964502335,0.04472475126385689,-0.09243889898061752,0.016722064465284348,0.11791131645441055,0.01588457077741623,-0.03352469578385353,0.004021527245640755,-0.03375754877924919,-0.029359139502048492,0.11425149440765381,0.004861617460846901,-0.08023583889007568,0.1447727084159851,-0.005639036651700735,0.002016267506405711,-0.06624174118041992,-0.02321803756058216,-0.052207108587026596,0.004608275834470987,-0.05596093460917473,-0.015233222395181656,0.10896443575620651,-0.08373799920082092,0.004460912197828293,-0.022848350927233696,0.008732715621590614,0.03563986346125603,-0.012597758322954178,0.04455852508544922,0.0725116953253746,0.07087520509958267,0.13611623644828796,-0.08629800379276276,-0.012815504334867,0.13019512593746185,-0.13942603766918182,0.03759390115737915,0.02960445173084736,0.010834013111889362,-0.016007591038942337,0.009204108268022537,-0.06211979687213898,0.09551401436328888,-0.011980908922851086,-0.0341310016810894,-0.018390411511063576,-0.019122304394841194,-0.10859180986881256,-0.012774663977324963,-0.09933295100927353,0.02806943468749523,0.030848706141114235,-0.01660468988120556,-0.06569599360227585,0.08819176256656647,0.014860953204333782,6.98150324751623e-05,-0.17032399773597717,0.0236976221203804,0.020386014133691788,-0.012286471202969551,0.03269346430897713,-0.035898447036743164,-0.030879106372594833,0.08922050893306732,-0.028579600155353546,-0.044530436396598816,-0.04093588516116142,-0.10693729668855667,-0.00828704796731472,-0.10552738606929779,0.08174221217632294,0.16161534190177917,0.18004730343818665,-0.17505855858325958,-0.026577778160572052,-0.015016896650195122,-0.16410838067531586,0.05757530406117439,-0.026441354304552078,0.09487903118133545,0.17613382637500763,-0.08563034236431122,0.0007642629789188504,-0.049499090760946274,-0.016227180138230324,0.03257955238223076,-0.04656160995364189,-0.009797956794500351,0.11015477031469345,-0.025009116157889366,0.025243613868951797,-0.04217980429530144,0.0461483933031559,-0.11134734004735947,0.11167575418949127,-0.037577636539936066,-0.0005986334872432053,-0.0417480543255806,-0.08508870750665665,-0.007103304378688335,0.16475915908813477,0.04393137991428375,0.03940631449222565,0.07997117191553116,-0.03713081404566765,-0.01775861717760563,-0.11125709116458893,-0.051291320472955704,0.058908749371767044,-0.022639917209744453,-0.057669565081596375,-0.06941179186105728,0.00694543682038784,-0.15128815174102783,0.013732516206800938,-0.05403513088822365,0.025948436930775642,-0.0325094610452652,0.04871239513158798,0.10166642814874649,0.113876573741436,0.03279055655002594,-0.07967431843280792,0.06801097840070724,0.12485034763813019,0.017470302060246468,0.10458417981863022,0.12642641365528107,0.03878338262438774,-0.07880949229001999,-0.011539127677679062,-0.034292906522750854,-0.11864039301872253,0.03264680877327919,-0.007805229630321264,-0.023450125008821487,0.005668795667588711,-0.00843858066946268,0.07955936342477798,-0.029253749176859856,-0.112208791077137,-0.01421299297362566,0.055075470358133316,0.04372024163603783,-0.03365248814225197,0.022848840802907944,0.01324552483856678,0.11657837778329849,0.017144273966550827,-0.06709516048431396,0.03027862310409546,0.05940322205424309,-0.14245827496051788,0.09773881733417511,-0.12029170244932175,-0.008110418915748596,-0.029587097465991974,-0.028584156185388565,-0.025248756632208824,0.02126723900437355,0.08546704798936844,-0.037746358662843704,0.15357956290245056,-0.05007750540971756,0.0021096153650432825,0.03131353110074997,0.0626724511384964,0.00819549523293972,0.08739311248064041,0.1940482258796692,-0.050390176475048065,0.024315176531672478,-0.014158397912979126,0.06577932089567184,0.026338959112763405,-0.030699122697114944,-0.04495050758123398,0.09214892983436584,0.07451778650283813,0.09974665939807892,0.030992286279797554,0.058568887412548065,0.17422209680080414,0.01694747805595398,-0.05677839741110802,-0.032237112522125244,-0.029465101659297943,0.08304111659526825,-0.013502218760550022,-0.040517617017030716,-0.03231962025165558,-0.09661727398633957,-0.17737074196338654,0.13572105765342712,-0.038958195596933365,0.07402221858501434,0.04966486990451813,-0.21062272787094116,-0.02915174327790737,-0.07079967856407166,-0.05368887633085251,-0.08149300515651703,0.02484334446489811,0.07129919528961182,-0.065968818962574,0.0385902114212513,0.011720435693860054,0.04109876602888107,0.04739703610539436,0.06541520357131958,-0.09472785145044327
0.10256949067115784,0.1153787150979042,0.028042415156960487,-0.040949270129203796,-0.030031735077500343,-0.002899899147450924,-0.0913872942328453,-0.06443526595830917,0.01415074709802866,0.14853619039058685,-0.05305488407611847,0.2069767266511917,0.08683270961046219,-0.08792675286531448,-0.1639758050441742,0.08248379081487656,-0.1009104773402214,0.0011843296233564615,0.018784616142511368,0.20293763279914856,-0.1181199923157692,-0.10634009540081024,-0.17198430001735687,-0.07036937773227692,0.18366920948028564,0.12100157886743546,0.015130085870623589,-0.06651775538921356,0.07851088792085648,-0.05535608157515526,0.18623405694961548,0.012663434259593487,0.015246576629579067,0.004326603375375271,-0.007715720683336258,-0.07579263299703598,-0.02215053141117096,0.02799307368695736,0.04669911414384842,0.05384233966469765,0.03379813954234123,-0.023465843871235847,-0.00257669435814023,0.01449799444526434,-0.05697605386376381,0.03069433569908142,0.004796169698238373,0.031154921278357506,-0.05783873051404953,-0.051933035254478455,-0.021643465384840965,0.07640305906534195,-0.03129401057958603,0.17092113196849823,0.01949579454958439,-0.018414009362459183,-0.00011981377610936761,-0.04313603416085243,-0.08943652361631393,0.032834503799676895,0.02693367935717106,0.03365889936685562,0.05215553939342499,-0.023388192057609558,0.017522618174552917,0.09580805897712708,-0.03609297052025795,-0.15923893451690674,0.044035159051418304,-0.030729977414011955,0.07876069843769073,-0.030879177153110504,0.05426105856895447,-0.016227982938289642,0.018719293177127838,0.022317059338092804,0.08318044990301132,0.01942112110555172,-0.11442401260137558,-0.05218816176056862,-0.03569738566875458,-0.12445943802595139,-0.008547566831111908,-0.08555138856172562,-0.013318169862031937,0.042930424213409424,-0.1312771737575531,0.03310341387987137,-0.06803824752569199,-0.043083012104034424,0.08857782930135727,0.15672877430915833,0.022677026689052582,0.14760491251945496,-0.1599053144454956,0.044378336519002914,0.10664203763008118,0.07399500906467438,0.03480561077594757,0.03558908775448799,0.0271402969956398,0.06828192621469498,0.11402922123670578,0.02968989685177803,0.005249840673059225,-0.1409049928188324,-0.02981005422770977,-0.0005665917997248471,0.020402071997523308,0.09834739565849304,0.02630213275551796,-0.00022705188894178718,0.034487057477235794,0.0019754224922508,0.06452617794275284,0.027964843437075615,-0.07076633721590042,0.09925322234630585,0.005510395392775536,-0.027751071378588676,-0.02563493885099888,0.014251700602471828,0.05894555151462555,0.0769866332411766,-0.055337633937597275,-0.11391107738018036,0.07030332088470459,0.014275843277573586,-0.11691050976514816,0.18672393262386322,-0.028576599434018135,7.433807331835851e-05,0.026668643578886986,0.19142533838748932,0.0016622007824480534,-0.04361727833747864,0.024192124605178833,0.072323739528656,0.08141531050205231,-0.0743364617228508,0.020766591653227806,0.03439527377486229,0.033059313893318176,0.020251154899597168,0.054848816245794296,-0.10111087560653687,-0.22704623639583588,-0.054807938635349274,-0.0032695939298719168,-0.04168981686234474,0.0866941437125206,-0.021841710433363914,-0.010348607785999775,0.09937108308076859,-0.09382780641317368,-0.03138912096619606,0.022659635171294212,0.08320341259241104,-0.0012361304834485054,0.1278003752231598,-0.018335137516260147,-0.01613711565732956,-0.029367897659540176,-0.02069171704351902,0.005669886711984873,-0.04026513546705246,-0.011515576392412186,-0.15396277606487274,0.02917395904660225,0.06645211577415466,-0.019686920568346977,0.10082497447729111,0.09786811470985413,0.004667647182941437,-0.05707273632287979,0.03723378852009773,0.008371425792574883,-0.01737254112958908,0.20479606091976166,-0.007441645488142967,-0.03893999382853508,0.02684243768453598,0.13423895835876465,0.0136088402941823,-0.046416305005550385,0.11579593271017075,-0.036094117909669876,0.010854227468371391,0.10440314561128616,0.05964003875851631,-0.13505111634731293,-0.10162851959466934,0.21739864349365234,-0.01221469696611166,0.10754097253084183,-0.005269729066640139,0.007529274094849825,0.09254185110330582,-0.20937657356262207,-0.05558015778660774,-0.0013120454968884587,0.03362223878502846,0.07747326791286469,-0.038487691432237625,-0.05539697781205177,-0.06455928087234497,-0.022744938731193542,0.008640047162771225,-0.07952845096588135,0.086494080722332,0.028424089774489403,0.05357849970459938,-0.10133296251296997,-0.07419529557228088,-0.03455185145139694,-0.015365424565970898,-0.03176990896463394,0.11902857571840286,0.011081048287451267,0.004341259133070707,0.12909914553165436,-0.05652830749750137,0.05865900591015816,-0.04131976142525673,-0.07535600662231445,0.04239421337842941,0.16716596484184265,-0.1211029514670372,0.031100716441869736,-0.07880116254091263,0.22521686553955078,0.11260391771793365,-0.008859151974320412,0.01339254155755043,-0.15684624016284943,-0.03968489542603493,0.025043189525604248,0.14756956696510315,0.0017702947370707989,-0.11290409415960312,-0.014466906897723675,-0.19252853095531464,-0.09559234231710434,0.07345885783433914,0.029464315623044968,-0.0645156279206276,0.08642984181642532,0.04539823904633522,-0.04452148452401161,-0.019189098849892616,0.13599638640880585,0.12543177604675293,0.009509953670203686,0.08096607774496078,-0.023851212114095688,0.1065802127122879,-0.07414305955171585,0.006114370189607143,0.01592939905822277,-0.02988702803850174,-0.048833172768354416,-0.09364145249128342,-0.029026072472333908,-0.002831215737387538,0.13284865021705627,0.03381494805216789,-0.10943201929330826,-0.023671522736549377,-0.03980018571019173,0.0797773152589798,0.13226023316383362,-0.02492143027484417,0.07627401500940323,0.0057720644399523735,-0.10224856436252594,-0.15770989656448364,0.1350126415491104,0.10296504199504852,-0.038253303617239,-0.00880155898630619,-0.17406950891017914,0.007231126539409161,-0.12734384834766388,-0.11931164562702179,0.029172617942094803,0.058503687381744385,-0.024666158482432365,-0.0048722210340201855,0.0640023723244667,0.042234521359205246,-0.007459727581590414,0.13706354796886444,-0.020435700193047523,-0.013804304413497448,0.014043422415852547,0.006851299200206995,-0.11379622668027878,0.058248091489076614,0.03177213668823242,-0.012921471148729324,0.046094950288534164,-0.035979337990283966,0.009512441232800484,-0.03135198354721069,-0.07969791442155838,0.0022890737745910883,-0.240767240524292,0.024130644276738167,0.0590619258582592,-0.04134219139814377,0.16114138066768646,0.008959139697253704,0.008220799267292023,-0.08776986598968506,0.06863061338663101,0.15768703818321228,-0.07934633642435074,-0.0818229466676712,-0.07398767024278641,-0.024855226278305054,0.05214636027812958,0.010422948747873306,0.0416690967977047,0.03927187621593475,-0.021347884088754654,0.045336559414863586,-0.07901158928871155,0.04510604217648506,-0.10381222516298294,-0.06240947172045708,0.012496125884354115,-0.12409824132919312,0.07739627361297607,0.2068743109703064,-0.10952994972467422,-0.01924094744026661,0.10422056168317795,-0.00037690665340051055,-0.15633021295070648,0.025437194854021072,0.011483273468911648,0.11579412966966629,0.1382719725370407,-0.00909269880503416,-0.025559259578585625,-0.018962709233164787,0.01960311271250248,-0.02162846177816391,-0.03275034949183464,-0.13361722230911255,-0.0016421612817794085,0.12433458119630814,-0.14931680262088776,0.07294297963380814,-0.08230765908956528,0.026722673326730728,-0.02180565893650055,0.0013352048117667437,0.08927158266305923,0.10675817728042603,0.03361994028091431,0.04764002561569214,-0.056077975779771805,0.03298118710517883,0.14441484212875366,0.03150726482272148,0.0857495665550232,-0.13634565472602844,0.03295176103711128,-0.01985960640013218,-0.06206345185637474,0.07717595249414444,0.141709566116333,0.046841930598020554,0.04758523032069206,-0.014466013759374619,-0.019621381536126137,-0.20111234486103058,-0.015318743884563446,0.07664535939693451,0.016346415504813194,0.08497610688209534,0.04793878644704819,0.08589184284210205,0.014805106446146965,0.15209761261940002,0.013282441534101963,0.07467774301767349,0.02068503387272358,-0.01630985364317894,-0.09558267891407013,0.09001414477825165,0.037027351558208466,-0.09055754542350769,-0.019699791446328163,-0.05420698970556259,0.05402154102921486,0.0021326676942408085,-0.015285293571650982,-0.03252878785133362,0.06118759885430336,0.03268074616789818,0.051005035638809204,0.11191049963235855,-0.00822353083640337,0.0142538882791996,0.11647890508174896,-0.04111818969249725,-0.1158379465341568,0.132021963596344,0.06917107105255127,0.09830296784639359,0.05981038510799408,-0.01633645035326481,0.013801999390125275,-0.0021465688478201628,-0.018158558756113052,-0.05169551074504852,-0.07590362429618835,-0.036476362496614456,0.07490220665931702,0.014855898916721344,0.022736653685569763,-0.028006603941321373,-0.13325068354606628,0.022646596655249596,0.1034676730632782,-0.05550139769911766,-0.2788272500038147,-0.12898364663124084,-0.053834859281778336,0.03395269438624382,0.19503958523273468,0.010861126706004143,-0.103321872651577,0.0610165074467659,-0.013342443853616714,-0.06815046072006226,-0.03516416624188423,-0.016397396102547646,-0.014407632872462273,0.052877072244882584,-0.014434541575610638,-0.06094900891184807,0.02718537487089634,-0.007881528697907925,0.03973418474197388,-0.10684031993150711,-0.12426112592220306,-0.006121514830738306,-0.028636522591114044,0.002291315235197544,-0.035554323345422745,0.18943318724632263,0.12166919559240341,-0.0629689022898674,0.13023987412452698,-0.1779799610376358,0.03352697938680649,0.19068047404289246,0.0823269709944725,0.09205879271030426,-0.03111887164413929,-0.003434958402067423,-0.06694024056196213,-0.15286502242088318,-0.031890157610177994,-0.06093519181013107,-0.015546281822025776,0.05657368153333664,0.03140776604413986,-0.04659343883395195,0.05252092704176903,-0.06246745586395264,-0.11503233760595322,0.20980189740657806,-0.01632288657128811,-0.0785287395119667,0.011256657540798187,0.03882075101137161,-0.0033070624340325594,0.04325235262513161,0.04163317754864693,0.06704838573932648,-2.6791642085299827e-05,-0.06279945373535156,0.00515336636453867,-0.053385235369205475,-0.09690091758966446,0.07496809959411621,0.0257317703217268,-0.01478682179003954,0.0020269788801670074,0.0752122700214386,-0.014429971575737,0.004836459178477526,0.023810112848877907,0.1049518808722496,0.06820857524871826,0.1414131373167038,-0.06667476147413254,-0.13220670819282532,0.006577005609869957,0.053978994488716125,-0.18977369368076324,-0.11478669196367264,0.0010034062433987856,0.06523063033819199,-0.0288173146545887,0.03797468915581703,-0.15285226702690125,0.003951428923755884,-0.03944429010152817,-0.06540651619434357,-0.011617987416684628,-0.005304201040416956,0.1107131764292717,-0.10871823877096176,0.061962418258190155,-0.036807768046855927,0.07862713932991028,-0.022572077810764313,-0.034106023609638214,-0.03399079665541649,0.05876243859529495,-0.011842840351164341,0.13999642431735992,-0.19818998873233795,-0.03306260704994202,0.028633616864681244,-0.0159696526825428,0.016622792929410934,-0.10827283561229706,0.030454030260443687,0.08804570883512497,-0.044952064752578735,0.08423817157745361,-0.0011476435465738177,0.2804391086101532,0.041251085698604584,0.05216193571686745,0.025459222495555878,-0.05239500477910042,0.05442044511437416,-0.13443434238433838,0.11133725941181183,-0.033846329897642136,0.08068006485700607,-0.1725786328315735,-0.047164611518383026,-0.029532626271247864,0.0309014730155468,-0.06994771212339401,-0.04710269346833229,-0.01691536232829094,-0.0410531647503376,0.053581416606903076,0.030563408508896828,-0.018615515902638435,0.13962242007255554,0.14402928948402405,0.14327773451805115,-0.005604651290923357,-0.0912691205739975,-0.08546531945466995,-0.017308494076132774,-0.013297535479068756,0.030960654839873314,-0.003952983301132917,-0.132282555103302,0.16167357563972473,0.003439804771915078,0.12999548017978668,0.09053269773721695,0.039349231868982315,-0.023336349055171013,0.02547430619597435,0.03669586032629013,-0.06386806070804596,-0.005098590161651373,-0.04718232899904251,-0.07720588147640228,-0.0018773804185912013,0.08796673268079758,0.012909868732094765,-0.05695051699876785,0.002124660648405552,-0.08739950507879257,0.11849498003721237,-0.1287626028060913,-0.07745198905467987,0.07467909902334213,0.1690109372138977,-0.03567430004477501,-0.07832738757133484,-0.03421846404671669,0.019993575289845467,0.018734009936451912,-0.046288348734378815,0.024177903309464455,-0.021733548492193222,0.11088904738426208,-0.01122180838137865,0.02365383692085743,-0.09596972912549973,0.03531013801693916,-0.13621805608272552,0.05808199569582939,-0.025759179145097733,-0.004866297822445631,-0.02929491363465786,0.10890412330627441,-0.09194456040859222,0.037094417959451675,0.021702440455555916,-0.05380036681890488,0.013690019957721233,0.008635283447802067,-0.009792925789952278,-0.15925055742263794,0.045595914125442505,-0.07235878705978394,0.0012611917918547988,0.03114377148449421,0.03235980495810509,-0.0442563071846962,-0.005273752845823765,0.07168437540531158,-0.09428814798593521,-0.07534094154834747,0.009032283909618855,-0.01549325417727232,0.016096895560622215,-0.03478401526808739,-0.04586520791053772,0.2667382061481476,0.06872940063476562,-0.013993483036756516,0.017021138221025467,0.16196779906749725,0.11762038618326187,0.04942875728011131,0.16162626445293427,-0.00887585524469614,0.09322436153888702,0.09078489243984222,0.17905649542808533,0.15322573482990265,0.024221666157245636,-0.17575103044509888,0.0691639631986618,-0.009943369776010513,0.08705538511276245,0.08572594821453094,0.06934764236211777,0.0015511822421103716,0.08360926061868668,-0.01449772622436285,-0.11352065205574036,0.036686331033706665,0.006400648970156908,-0.05952505022287369,0.027638768777251244,0.01479388028383255,-0.026505501940846443,-0.06242114305496216,-0.10725594311952591,-0.1612771898508072,0.012747947126626968,-0.0892491415143013,-0.012682276777923107,-0.07816074043512344,-0.0066053676418960094,0.006057494319975376,0.07269959896802902,-0.019845036789774895,-0.05029944330453873,0.08949273079633713,0.015137658454477787,-0.06131628900766373,0.14421065151691437,0.05462338402867317,-0.14382483065128326,0.00035577433300204575,0.07523706555366516,0.1650477796792984,0.11238133907318115,0.05059579759836197,-0.003998252097517252,0.023972395807504654,-0.002481924369931221,0.0378187894821167,-0.11343517899513245,-0.16692659258842468,0.04070190712809563,0.07113886624574661,0.16162320971488953,-0.0021943794563412666,0.1847335547208786,-0.018116412684321404,0.20109575986862183,-0.12904970347881317,0.10792049765586853,0.007190957199782133,-0.08081144094467163,-0.08549089729785919,0.03527330234646797,0.036539044231176376,-0.02099331095814705,0.07040230184793472,-0.06211064010858536,-0.04434782266616821,0.0205826573073864,0.015414289198815823,0.16139714419841766,0.02348879538476467,-0.19853781163692474,-0.08193035423755646,-0.002400102559477091,-0.10663376748561859,-0.1424161195755005,-0.021404415369033813,-0.03985666483640671,-0.027631884440779686,0.1646624058485031,0.07803612947463989,0.023062005639076233,0.04148828610777855,0.21986223757266998,-0.08498924970626831,-0.02762020379304886,0.037569452077150345,0.008380682207643986,0.16346317529678345,-0.002882031723856926,0.15417857468128204,-0.10600587725639343,0.0010745918843895197,-0.02682337537407875,-0.004967451095581055,0.062475576996803284,-0.01467165071517229,0.009531927295029163,0.021397197619080544,-0.0049560279585421085,-0.0033506033942103386,0.09519843012094498,-0.09337548166513443,0.04142588749527931,0.04794708639383316,0.15831081569194794,-0.05225983262062073,0.14150838553905487,0.09302312880754471,0.049606937915086746,-0.12353713065385818,-0.002524884883314371,-0.06395595520734787,0.04217434301972389,0.04490489512681961,-0.035956285893917084,-0.14378954470157623,-0.12121434509754181,-0.00015802981215529144,-0.08456147462129593,-0.12215539067983627,-0.17172136902809143,0.012383216992020607,-0.08925192058086395,-0.019359702244400978,0.1696678251028061,-0.02051110565662384,0.13577449321746826,0.08838938921689987,-0.017874717712402344,-0.027099955826997757,0.06874477118253708,0.10671568661928177,-0.00013770181976724416,0.02858695574104786,-0.04854227602481842,0.08158709108829498,0.10271245241165161,-0.028660446405410767
0.005050801672041416,-0.16769461333751678,-0.06883762776851654,-0.08571182191371918,-0.013728030025959015,-0.12389548867940903,0.06981658190488815,-0.01521290373057127,-0.026349516585469246,-0.02118079923093319,-0.04749961569905281,0.10911111533641815,0.05742403119802475,-0.13091954588890076,0.11069643497467041,-0.00785731803625822,-0.00820324756205082,-0.0051305354572832584,0.17406052350997925,-0.11532870680093765,0.0372401587665081,0.044934552162885666,-0.13758978247642517,0.061877742409706116,-0.08829835057258606,-0.10349654406309128,0.05711249262094498,-0.13118989765644073,-0.050773803144693375,0.03606811538338661,0.18941658735275269,-0.062200140208005905,0.13845199346542358,0.003560915356501937,-0.03056725673377514,0.07880647480487823,-0.0772048681974411,-0.0336562879383564,-0.06088265776634216,-0.04493933171033859,0.16482244431972504,0.011600551195442677,-0.06855285912752151,-0.03687846660614014,0.09607234597206116,0.05446028336882591,-0.02159005217254162,-0.012991121038794518,0.12348941713571548,0.051807522773742676,-0.06741835922002792,0.03610403090715408,0.15893405675888062,0.06069241464138031,0.017068801447749138,-0.0943908765912056,0.021334130316972733,0.1380402147769928,-0.09368014335632324,-0.030676284804940224,-0.033339258283376694,0.11648248881101608,-0.05086600407958031,-0.04614810645580292,-0.021621357649564743,0.006691364571452141,-0.0518273189663887,-0.09049330651760101,0.0005075062508694828,0.02822044864296913,-0.04565640538930893,-0.033020954579114914,-0.09244783222675323,0.06500531733036041,-0.12944485247135162,0.0589129813015461,-0.020495809614658356,-0.04197890684008598,-0.12678402662277222,-0.028514359146356583,0.0017061628168448806,-0.015909431502223015,0.004483220167458057,-0.05043641850352287,0.011947601102292538,-0.07431267201900482,0.011607533320784569,-0.03190925717353821,-0.02429088205099106,-0.13852620124816895,-0.13911151885986328,0.07118888944387436,-0.058379266411066055,0.0685933530330658,-0.028309369459748268,0.19222037494182587,0.09338560700416565,0.008626977913081646,0.03247358649969101,-0.004129554610699415,0.17277967929840088,-0.08294022083282471,0.006062178406864405,-0.04683437570929527,0.020091194659471512,-0.027376733720302582,0.009178261272609234,-0.03463931009173393,-0.2538461685180664,-0.009817770682275295,-0.0720074474811554,0.10258706659078598,-0.022322596982121468,-0.013544918037950993,0.018414482474327087,0.01971825398504734,0.06145187467336655,-0.0691123902797699,-0.028380347415804863,-0.01448152307420969,0.033093854784965515,-0.0018546520732343197,-0.04052533954381943,-0.19142144918441772,-0.008472788147628307,0.11310386657714844,0.0756547674536705,-0.035424407571554184,0.07808179408311844,0.07424861937761307,-0.0976659432053566,-0.021746471524238586,-0.07485748082399368,0.19502657651901245,0.17001405358314514,-0.08147688955068588,-0.0644751638174057,-0.017609722912311554,0.012163946405053139,-0.17127753794193268,0.01444935891777277,-0.0827697217464447,0.06867638975381851,-0.10051801800727844,-0.013003209605813026,0.09238453954458237,-0.006319520529359579,0.007389924488961697,0.06992749869823456,-0.06360810995101929,0.05273022875189781,-0.09083065390586853,-0.018316730856895447,0.045179907232522964,0.08349580317735672,-0.06853988021612167,0.15851521492004395,-0.1437429040670395,0.03306371346116066,0.11721768975257874,-0.02955210953950882,0.06389276683330536,-0.03664255142211914,-0.01956241764128208,-0.0019056979799643159,0.11622921377420425,0.09772951155900955,-0.04308245703577995,0.15696479380130768,-0.05606415495276451,0.038625966757535934,0.12737832963466644,0.09615866094827652,0.07370156049728394,0.02628762647509575,0.0340433306992054,-0.07676474004983902,0.004068493843078613,-0.002546436619013548,-0.025930294767022133,-0.017636550590395927,-0.025559743866324425,-0.002791591687127948,-0.027543051168322563,0.10183058679103851,0.07594723254442215,-0.12569354474544525,-0.059583619236946106,-0.09911931306123734,0.03897498920559883,0.06441962718963623,-0.05606021732091904,-0.092165008187294,0.030452994629740715,-0.09316706657409668,-0.10127595067024231,-0.014219311997294426,0.13707837462425232,-0.05746893584728241,-0.01379504706710577,-0.027206966653466225,0.013871598988771439,0.03387875109910965,0.004108823370188475,-0.03281639143824577,0.08621177822351456,-0.0503227561712265,-0.003276426810771227,0.04842761158943176,0.21474778652191162,-0.02979862131178379,0.05477326735854149,0.035847216844558716,-0.08004935830831528,0.011697257868945599,0.012299754656851292,-0.011270355433225632,0.009065741673111916,-0.15929511189460754,0.010939113795757294,-0.039952006191015244,-0.060390226542949677,0.037294380366802216,0.11473444849252701,-0.1511644572019577,-0.032265856862068176,-0.09421056509017944,-0.12242373079061508,-0.050350580364465714,0.2529577314853668,0.06047942861914635,-0.022273467853665352,-0.07641591131687164,0.07694243639707565,0.007612620014697313,0.1611373871564865,0.027699774131178856,-0.020170925185084343,0.026388760656118393,0.12102053314447403,0.07189366221427917,-0.0687950924038887,0.004966064356267452,-0.031044254079461098,-0.023470692336559296,0.011992182582616806,-0.061962537467479706,0.010364203713834286,0.017414793372154236,-0.05424678325653076,-0.15487445890903473,-0.06201054900884628,0.05378543585538864,0.0965050458908081,0.006398838013410568,-0.044339369982481,-0.06744909286499023,-0.08162245154380798,-0.010472969152033329,0.09846320003271103,-0.03261830657720566,0.23361510038375854,-0.018986161798238754,0.0021480075083673,-0.06956165283918381,-0.012715654447674751,0.021244071424007416,0.023627201095223427,0.04773625358939171,-0.050225842744112015,-0.1192743256688118,-0.003956162370741367,0.06664267927408218,-0.052094634622335434,-0.05608848109841347,-0.08449047058820724,-0.006438157521188259,-0.11282116174697876,-0.18213945627212524,-0.0230967216193676,-0.0799056887626648,-0.068194180727005,0.0491744801402092,-0.03278082609176636,-0.013602903112769127,0.0011102803982794285,0.027811286970973015,-0.04737204313278198,0.11247318238019943,-0.10810139030218124,-0.10367758572101593,0.03543173521757126,0.07534683495759964,0.08517230302095413,-0.03169756010174751,-0.01816576160490513,-0.023404326289892197,-0.0433611236512661,0.03364205360412598,0.01707279682159424,-0.09721151739358902,0.01389705017209053,0.02406531386077404,-0.016973717138171196,-0.06963071972131729,0.020686225965619087,-0.030644124373793602,-0.04704151675105095,-0.08737081289291382,-0.02733621373772621,0.05626090615987778,-0.006939216051250696,-0.14110919833183289,0.051112137734889984,-0.12575744092464447,0.09715018421411514,-0.07303810119628906,-0.15037283301353455,0.0637570396065712,-0.2479674518108368,0.09552215784788132,-0.07956533133983612,-0.05109119415283203,-0.08150637894868851,0.011720659211277962,-0.00211481680162251,0.036391131579875946,0.06907597184181213,0.09836231917142868,-0.012187345884740353,0.19440853595733643,-0.027803661301732063,0.026369348168373108,0.08604120463132858,-0.08968126773834229,-0.02060021087527275,0.07131051272153854,-0.0026431542355567217,-0.09657985717058182,-0.005057414993643761,-0.07848618179559708,0.048197247087955475,0.0594358891248703,0.031295884400606155,0.03462507203221321,-0.009076244197785854,0.015364907681941986,0.0046280063688755035,-0.019984934478998184,-0.05749686062335968,-0.01959652081131935,-0.06562409549951553,0.0026262751780450344,0.11140850186347961,-0.02854226715862751,-0.06904084980487823,0.030822178348898888,-0.037064388394355774,-0.07467123121023178,-0.01683982089161873,-0.09975989907979965,-0.048019975423812866,0.00815194845199585,0.0020284904167056084,0.07216054201126099,0.057576075196266174,-0.0635957345366478,-0.03878282010555267,-0.06978488713502884,0.03505893051624298,-0.08379654586315155,0.03690493479371071,0.010543666779994965,-0.010824558325111866,-0.07683777064085007,-0.03797173127532005,0.22887323796749115,0.10725502669811249,-0.04656030610203743,-0.05184062570333481,-0.034768860787153244,-0.1312464326620102,-0.12027256190776825,-0.03698398172855377,-0.02750254236161709,0.12588973343372345,-0.21097618341445923,0.042070284485816956,0.004233870655298233,-0.16813142597675323,0.06856833398342133,0.12211256474256516,0.02190866507589817,-0.012672623619437218,0.05352052301168442,0.033500541001558304,-0.030327411368489265,0.02815043367445469,-0.020391596481204033,0.0323934368789196,-0.05687740072607994,0.030508510768413544,-0.06824450194835663,0.023861737921833992,0.008832162246108055,-0.007626201491802931,0.056687433272600174,0.049942679703235626,0.14341437816619873,-0.08835966885089874,-0.043791599571704865,-0.08547006547451019,0.004826970398426056,0.0371859148144722,0.02956889197230339,-0.10121586918830872,-0.04723116010427475,-0.17953424155712128,-0.07224931567907333,0.02636701613664627,-0.16151440143585205,0.004993710666894913,-0.11559682339429855,0.026386475190520287,-0.05819707736372948,0.10758274793624878,-0.0735417827963829,0.06790535151958466,-0.19971542060375214,-0.0065946695394814014,-0.1566237211227417,-0.03493039682507515,0.012047831900417805,0.025773610919713974,0.17643213272094727,-0.08085732161998749,0.048498645424842834,0.14727751910686493,0.017567873001098633,0.07508446276187897,-0.10584966093301773,-0.13663922250270844,-0.06038486585021019,0.14493876695632935,0.023733092471957207,-0.005445676390081644,0.11626966297626495,0.13810847699642181,0.08021598309278488,0.008770023472607136,0.029620127752423286,-0.05537363886833191,-0.0038254561368376017,-0.0985075905919075,-0.13182149827480316,-0.13647884130477905,0.01032891497015953,0.06464634090662003,-0.04599517956376076,0.07840467244386673,-0.022257037460803986,-0.0034872544929385185,0.010631358250975609,0.01064149010926485,-0.0004792622057721019,0.15925723314285278,-0.08021214604377747,0.10728398710489273,0.02537442557513714,0.2114390879869461,0.08375592529773712,-0.15095266699790955,-0.0867341011762619,0.028196249157190323,0.07818584144115448,-0.16674195230007172,-0.05905595421791077,-0.06401407718658447,0.03323750197887421,-0.10804669559001923,-0.08249392360448837,0.06218886375427246,0.062436293810606,-0.07653271406888962,0.029460927471518517,-0.18552619218826294,-0.019254401326179504,0.07246909290552139,0.12243039906024933,0.18862895667552948,-0.032669760286808014,-0.017899714410305023,-0.12685637176036835,-0.018713664263486862,-0.04632878676056862,-0.004639874212443829,0.021013900637626648,-0.03580957651138306,0.05251416563987732,0.19760482013225555,-0.039941929280757904,0.12224852293729782,0.0853167176246643,0.010292145423591137,0.16467538475990295,-0.028368039056658745,0.0345192551612854,-0.01597597822546959,0.028058409690856934,-0.07009107619524002,-0.10147399455308914,0.08411838859319687,-0.01715877465903759,-0.023902472108602524,0.03413014113903046,0.027549372985959053,-0.005953606218099594,0.09140688180923462,0.04220132529735565,0.06730610132217407,0.019895510748028755,0.08218085765838623,-0.018039686605334282,0.014678450301289558,0.11235073208808899,-0.026915835216641426,0.07613260298967361,-0.02185250259935856,0.029336415231227875,-0.04054056480526924,-0.03904310613870621,0.03401155024766922,-0.1279064267873764,0.04156116768717766,0.18505966663360596,0.11955472826957703,-0.03867701441049576,-0.023488229140639305,0.1004285216331482,-0.019627999514341354,-0.1310047209262848,0.12688055634498596,-0.031098347157239914,0.05030610039830208,0.1407896727323532,-0.0283556766808033,-0.02399471588432789,-0.025327986106276512,-0.050906483083963394,0.035328395664691925,-0.05129868909716606,0.00395200215280056,-0.1352720707654953,0.02969331480562687,-0.007545356638729572,-0.007291676942259073,0.1235460638999939,-0.051006659865379333,-0.016860079020261765,-0.07732222229242325,0.006637522019445896,-0.05217989906668663,-0.01885618455708027,-0.13005107641220093,0.008333216421306133,0.07331512123346329,0.030440224334597588,-0.029675211757421494,0.09366928786039352,0.057787712663412094,-0.13496997952461243,0.03692874312400818,-0.08756283670663834,0.11246635764837265,-0.019003720954060555,-0.15893276035785675,-0.0364583283662796,0.05946143716573715,0.12512002885341644,-0.001715427148155868,0.03966961428523064,0.038585223257541656,0.025627313181757927,0.09652097523212433,-0.1050860807299614,-0.07761217653751373,-0.09143427014350891,-0.07783655822277069,-0.06612814962863922,0.014982427470386028,-0.07115886360406876,-0.17667093873023987,0.10377775877714157,-0.24394628405570984,-0.0565883032977581,-0.0561741478741169,0.025892648845911026,0.010438675992190838,0.06908023357391357,-0.0011758818291127682,-0.029139894992113113,-0.015371729619801044,0.16780102252960205,-0.01511379610747099,0.09900856763124466,0.009419451467692852,-0.03367238491773605,-0.0721510499715805,-0.096128448843956,-0.01835956983268261,0.019349588081240654,0.12301018089056015,0.02206462249159813,-0.07464683055877686,-0.1369773894548416,0.10925114154815674,0.2122848927974701,-0.029414832592010498,0.017400994896888733,0.1499602496623993,-0.012166853062808514,0.07708457112312317,0.01950790546834469,0.006699578370898962,0.02044009417295456,0.12771831452846527,0.048733193427324295,0.10395638644695282,0.05973472818732262,0.17337612807750702,0.015585540793836117,-0.01867643930017948,-0.1096329391002655,0.02165868505835533,0.0996333435177803,-0.009840937331318855,-0.024073444306850433,-0.031646937131881714,-0.08264172822237015,-0.013832342810928822,-0.014385762624442577,0.08541366457939148,-0.06477497518062592,-0.10523609817028046,-0.19804637134075165,-0.04283687099814415,-0.007071183994412422,0.004755629226565361,0.0071776872500777245,0.1482446938753128,0.08259619027376175,0.1617738902568817,-0.14427827298641205,0.15383346378803253,-0.12626953423023224,0.06640341132879257,-0.04622332379221916,-0.009837096557021141,0.04505864903330803,-0.12467960268259048,-0.04106535017490387,0.0014661583118140697,-0.021312473341822624,-0.029983235523104668,0.04928774759173393,-6.463923637056723e-05,0.20047473907470703,0.0728854313492775,0.15841087698936462,-0.16039133071899414,0.07240321487188339,-0.1948157250881195,0.02386265993118286,-0.09254413098096848,-0.20806005597114563,0.046560656279325485,0.117678701877594,0.02481985092163086,-0.04399310424923897,0.07556987553834915,0.06289009004831314,0.11913792043924332,0.019138097763061523,-0.039027564227581024,0.1648866832256317,0.07684070616960526,-0.05331961438059807,0.1104462519288063,-0.14760267734527588,0.006796734407544136,0.010760627686977386,0.003428060095757246,0.20369946956634521,-0.17703348398208618,0.036484409123659134,0.031199296936392784,-0.1264813244342804,0.03712421655654907,-0.09343583881855011,-0.0347822830080986,0.006715489085763693,-0.09758627414703369,0.04103983938694,0.10652133822441101,0.1779651641845703,-0.036700230091810226,0.009364845231175423,-0.06693478673696518,-2.193413456552662e-05,-0.026801124215126038,0.053756508976221085,-0.030870908871293068,-0.00432770699262619,-0.10272200405597687,0.09163627028465271,-0.037828221917152405,0.09874587506055832,-0.15577110648155212,0.007251113187521696,0.028332456946372986,-0.04951697960495949,0.012143825180828571,0.019815582782030106,0.01968212053179741,-0.032582398504018784,0.14504000544548035,0.1246657595038414,0.021286586299538612,0.03185654431581497,0.27441540360450745,-0.003313440829515457,-0.10182197391986847,0.010738281533122063,-0.09243934601545334,0.010761870071291924,0.00993814691901207,0.01123566273599863,-0.03534828871488571,0.04166373237967491,-0.09235542267560959,0.0594467967748642,-0.034944768995046616,0.05939459055662155,0.08371087163686752,-0.014033546671271324,-0.0232916921377182,0.01046897191554308,0.0031117850448936224,0.13063441216945648,0.04980511963367462,0.114260733127594,0.055588070303201675,0.03846988454461098,-0.0024014844093471766,0.054709967225790024,-0.12864850461483002,-0.05820576101541519,-0.14061778783798218,-0.007930231280624866,-0.036841608583927155,-0.06353079527616501,-0.05063346400856972,0.002127200597897172,-0.006104709580540657,0.0833209678530693,0.20954741537570953,0.05702102556824684,0.0628439337015152,-0.16459867358207703,-0.05840270221233368,0.0618012398481369,0.02004481852054596,-0.025199448689818382,-0.0048918342217803,-0.01360899955034256,0.01852099783718586,-0.06638361513614655,0.1044926717877388,0.006166721228510141,-0.004237265791743994,-0.047823283821344376,-0.007952661253511906,-0.15301810204982758,0.1294195055961609
-0.10476956516504288,0.023953204974532127,-0.001838929601944983,0.05410212278366089,-0.030002089217305183,0.13440054655075073,-0.06881076842546463,0.025285344570875168,-0.029061749577522278,-0.12492754310369492,-0.14144445955753326,-0.05748998746275902,-0.055075205862522125,0.24173708260059357,-0.022737177088856697,0.12033694237470627,-0.06990877538919449,-0.02451219968497753,-0.2059551626443863,-0.025195354595780373,0.009656978771090508,0.01168768759816885,0.1236567273736,0.022448260337114334,-0.07731412351131439,0.15001575648784637,0.18023476004600525,0.14376504719257355,0.01684165745973587,-0.027487827464938164,-0.08260292559862137,0.05751486495137215,-0.08202358335256577,-0.0133872851729393,0.0034985041711479425,0.14628484845161438,0.05563456565141678,-0.10853064805269241,0.05602074787020683,0.0161838848143816,-0.027015740051865578,0.01721768267452717,0.10257899761199951,0.11331911385059357,-0.0479598194360733,-0.01780083030462265,-0.026379676535725594,-0.07681014388799667,-0.02215590327978134,-0.12326393276453018,-0.05796227976679802,-0.034919437021017075,-0.1809013932943344,-0.1767367273569107,0.032647211104631424,0.06699985265731812,0.009158866479992867,0.17240415513515472,0.1150885596871376,0.011894289404153824,0.18085803091526031,-0.1359047293663025,0.07719171047210693,0.05200539156794548,0.023953747004270554,-0.08114293217658997,-0.08874516189098358,0.15379375219345093,0.014702587388455868,0.0024350546300411224,-0.01173566933721304,0.035899125039577484,-0.02961815521121025,-0.07335828989744186,0.0470825657248497,-0.14507320523262024,-0.010424675419926643,-0.09695269912481308,-0.048708342015743256,0.09525254368782043,0.06709375977516174,0.05182679742574692,-0.02232278324663639,0.01098458468914032,0.015382123179733753,0.1708962321281433,0.03099588118493557,-0.03874793276190758,0.034768033772706985,-0.07314552366733551,-0.002673746319487691,-0.1076844111084938,-0.011363092809915543,-0.1084333136677742,-0.08438635617494583,-0.019663039594888687,-0.15507745742797852,-0.08818221837282181,-0.10400431603193283,-0.01612967997789383,-0.05105343461036682,0.007991563528776169,0.10740865767002106,-0.05300397053360939,-0.13218897581100464,0.04637007415294647,-0.009966632351279259,0.006861031986773014,0.14681175351142883,0.10266856104135513,0.041133731603622437,-0.0655612200498581,-0.07897261530160904,-0.0032115320209413767,0.23952290415763855,0.0036912609357386827,0.010186547413468361,0.17294353246688843,-0.01748657040297985,-0.03280983492732048,0.011659457348287106,0.005984795745462179,0.035978373140096664,-0.12430665642023087,-0.000862141081597656,-0.12784302234649658,0.023673146963119507,-0.02805999480187893,0.07458343356847763,-0.16830259561538696,0.00819555763155222,0.08180956542491913,-0.022546179592609406,-0.17225471138954163,0.03260176628828049,-0.13157248497009277,-0.12436138838529587,-0.06586035341024399,-0.029285704717040062,-0.11187572777271271,0.007309353910386562,0.03689311072230339,0.05108106881380081,-0.030520310625433922,0.00165815360378474,-0.05220899358391762,0.0723605751991272,0.12930640578269958,-0.03674396127462387,0.06878579407930374,0.09676223248243332,0.06407926231622696,0.02786426991224289,-0.11924859136343002,-0.07355490326881409,-0.0073540788143873215,-0.04692366346716881,0.022281477227807045,0.002817788626998663,-0.15977080166339874,-0.014292034320533276,-0.10081397742033005,-0.033483896404504776,-0.017872480675578117,-0.03279523178935051,-0.04501590505242348,-0.01590268313884735,0.09524372220039368,-0.08326005935668945,-0.14198365807533264,-0.08540628105401993,-0.1467643678188324,0.07432138174772263,0.06454422324895859,0.02706691063940525,-0.03213471546769142,-0.17354874312877655,0.008341662585735321,0.019535236060619354,0.04202592372894287,0.09531679004430771,-0.036094311624765396,0.04535423219203949,0.06543991714715958,-0.06794744729995728,-0.04233131185173988,0.315184623003006,0.10576749593019485,-0.09565410017967224,-0.020223524421453476,0.030871184542775154,-0.04052288457751274,0.08773612231016159,0.014634315855801105,-0.03575167432427406,0.13035987317562103,-0.005120842717587948,-0.12171030789613724,-0.012312737293541431,-0.036896392703056335,-0.030058272182941437,0.02605372481048107,-0.024753475561738014,-0.032003480941057205,0.09925825148820877,0.14438146352767944,0.07452697306871414,0.01948659121990204,0.04055539146065712,0.1034635379910469,-0.059556275606155396,-0.15012115240097046,-0.023730391636490822,-0.1211714819073677,-0.036627642810344696,-0.025400083512067795,-0.011800664477050304,-0.09006193280220032,0.03095684014260769,-0.02344883605837822,0.0733703076839447,-0.03159894049167633,-0.07311007380485535,-0.12180841714143753,0.1416502445936203,0.02206728234887123,-0.11042377352714539,0.12245841324329376,-0.06127343326807022,0.02641024999320507,-0.06549563258886337,0.06209962069988251,-0.05973223224282265,-0.16963638365268707,0.04581563174724579,0.0014062448171898723,0.018454259261488914,0.04546000063419342,0.016566211357712746,-0.00926575344055891,-0.20423021912574768,-0.005513800773769617,-0.04828067496418953,-0.008017594926059246,-0.028386909514665604,0.11474727094173431,0.17459602653980255,-0.0850561112165451,0.04662588611245155,-0.04166034236550331,0.07359115034341812,0.03899826109409332,0.06056933477520943,0.05238565430045128,0.03311300650238991,-0.15175077319145203,0.05694754421710968,-0.027417484670877457,-0.02737744152545929,-0.06754045933485031,-0.06202675402164459,-0.07348056882619858,-0.027371838688850403,0.012192836962640285,-0.16088376939296722,0.006772708147764206,-0.08841485530138016,-0.048053912818431854,-0.02100844494998455,-0.09785791486501694,-0.06021888926625252,-0.020890554413199425,-0.08392054587602615,0.07039179652929306,0.175358846783638,0.0813956931233406,-0.03476305305957794,0.21210290491580963,0.08212462812662125,0.05636168643832207,-0.005559870973229408,-0.04808556288480759,0.12894472479820251,-0.01263504009693861,0.009780743159353733,-0.10731387883424759,0.13543984293937683,0.08471465110778809,-0.07027684897184372,-0.11413802206516266,0.0684845894575119,0.05707494542002678,-0.00993512012064457,-0.020899204537272453,0.038888365030288696,-0.023964878171682358,0.070929154753685,0.0016265322919934988,0.007977745495736599,-0.002409831155091524,-0.05475378781557083,-0.022562772035598755,0.09036511927843094,-0.0341268852353096,0.2082253396511078,0.015472969971597195,0.14067669212818146,0.06337197124958038,0.015436115674674511,0.014551644213497639,-0.01853678561747074,-0.004729652311652899,0.09559599310159683,-0.10072200000286102,0.17962931096553802,-0.0013520115753635764,-0.0786905512213707,0.11402297019958496,-0.029054319486021996,-0.037300411611795425,0.05745683237910271,0.1495923399925232,-0.0004992050817236304,0.035963114351034164,-0.012359041720628738,-0.0022858348675072193,-0.005604332312941551,-0.039271093904972076,-0.10712485760450363,0.03744524344801903,0.14441664516925812,0.025337938219308853,-0.11010852456092834,-0.024348190054297447,0.016306953504681587,0.06510423123836517,-0.21027803421020508,-0.042886268347501755,0.12984199821949005,-0.1852678656578064,0.17600402235984802,0.07480691373348236,-0.16916030645370483,0.009528477676212788,0.009580292738974094,-0.05822957307100296,-0.005133173428475857,0.00809292122721672,0.00798214040696621,-0.0341065339744091,-0.03467697650194168,0.08152487874031067,0.012895707041025162,0.01202330645173788,-0.14317719638347626,-0.09075413644313812,0.016694309189915657,0.03530052676796913,-0.009389923885464668,0.004639625083655119,0.06613878160715103,-0.10472440719604492,-0.10920900851488113,-0.013673223555088043,-0.044572338461875916,0.09849050641059875,-0.03698619827628136,0.0544191375374794,0.03398942947387695,-0.11631638556718826,0.08811270445585251,-0.15229371190071106,0.10267173498868942,0.048621587455272675,0.10642461478710175,-0.026542477309703827,-0.008265522308647633,0.03550820052623749,-0.025651587173342705,-0.08135230094194412,0.12483587861061096,0.17143628001213074,0.011313626542687416,0.10183349251747131,0.0885748565196991,-0.13068054616451263,0.162953719496727,-0.05304233357310295,-0.009192895144224167,0.12101493030786514,-0.017615577206015587,0.16831442713737488,-0.09566596895456314,0.023447226732969284,0.030802182853221893,-0.07049258798360825,0.12143661826848984,-0.027984851971268654,-0.0638536810874939,0.08137938380241394,-0.02603718638420105,0.028827814385294914,0.10920650511980057,-0.037582773715257645,-0.015326793305575848,-0.037348803132772446,0.04431774839758873,0.054765257984399796,-0.15236295759677887,0.13144907355308533,0.05346143990755081,0.0544685497879982,0.023510906845331192,0.007132675498723984,0.04008738696575165,0.044307902455329895,-0.06513357162475586,-0.003948621917515993,0.04020518809556961,-0.06173080578446388,0.11992084980010986,-0.008107617497444153,-0.029353760182857513,-0.003246667794883251,0.1259227842092514,0.012006625533103943,0.04225794970989227,0.11085376888513565,0.07502840459346771,0.025131186470389366,0.029247742146253586,-0.02338867448270321,-0.04265045002102852,0.0072068944573402405,-0.1545424908399582,0.030231019482016563,-0.024314789101481438,-0.062416207045316696,-0.006100830622017384,0.011550952680408955,0.010855451226234436,-0.02884517051279545,-0.07678216695785522,-0.0742386057972908,0.009377696551382542,-0.006230595055967569,-0.09509491175413132,0.06644444167613983,0.05038522556424141,-0.01566319167613983,0.030952248722314835,-0.006456825416535139,-0.01695753075182438,-0.1076182946562767,0.1334913671016693,0.18729916214942932,-0.0648285448551178,-0.02020549774169922,-0.00698167784139514,0.03619099408388138,-0.06593173742294312,-0.13720089197158813,-0.02287566289305687,0.01324416697025299,-0.12403979897499084,0.016432994976639748,0.09684798866510391,-0.06651339679956436,0.025482937693595886,-0.16029855608940125,-0.12030181288719177,-0.06184648722410202,0.10073136538267136,0.01692606508731842,-0.12507762014865875,-0.03561413288116455,-0.050035856664180756,-0.04148529842495918,0.18382768332958221,-0.012110857293009758,-0.06680301576852798,-0.10724684596061707,-0.13151711225509644,0.1041957214474678,0.03379400447010994,0.09590446949005127,-0.0342811681330204,0.10638503730297089,-0.05212365463376045,-0.030273202806711197,-0.008260995149612427,0.007876739837229252,-0.05572912096977234,0.1236879900097847,-0.010858557187020779,0.025163061916828156,0.028395598754286766,-0.009530100971460342,0.03307517245411873,-0.04128796607255936,0.03027658723294735,0.04777627810835838,-0.08649323880672455,0.014233898371458054,-0.13181206583976746,0.07117808610200882,-0.008715799078345299,-0.05834164842963219,-0.05668584629893303,-0.06000274792313576,0.2475609928369522,0.07147838920354843,-0.023681964725255966,-0.06494215875864029,0.017806101590394974,-0.002730743959546089,-0.015761716291308403,0.14861688017845154,0.007965871132910252,-0.1393555849790573,-0.07321739196777344,0.0336296372115612,-0.06308542937040329,0.022691337391734123,-0.04464028775691986,0.10856497287750244,-0.13398049771785736,-0.010070636868476868,0.017318513244390488,-0.11062514036893845,-0.01889897510409355,-0.17401613295078278,0.04948107525706291,-0.001185873756185174,-0.027199558913707733,-0.0003672518359962851,-0.018121933564543724,-0.07069385796785355,-0.05345262214541435,0.00906776636838913,0.06847751140594482,-0.0163336843252182,0.05884188041090965,-0.10830012708902359,0.024867231026291847,-0.008665729314088821,-0.008291903883218765,-0.11876986175775528,-0.012081769295036793,0.011767199262976646,0.0027676348108798265,0.08336350321769714,-0.004199977498501539,0.038211967796087265,-0.010735939256846905,-0.04612324386835098,-0.18428589403629303,0.02739209495484829,-0.01946832425892353,-0.08596090227365494,0.07574675232172012,-0.07994405180215836,-0.01743132434785366,0.15591365098953247,0.20786052942276,0.020046168938279152,-0.03402702137827873,-0.005125724244862795,0.046810559928417206,0.048103999346494675,-0.00669272243976593,-0.007081406656652689,0.024127934128046036,0.024482060223817825,0.04529370740056038,-0.004681518767029047,0.003848062362521887,0.028640547767281532,0.03512101620435715,0.01037950161844492,-0.06742990016937256,0.133548304438591,0.028634337708353996,0.015776582062244415,-0.0016344974283128977,-0.07583209872245789,0.08579269051551819,0.011103210970759392,0.20887960493564606,0.1469380259513855,-0.005343590397387743,0.09862298518419266,-0.016561854630708694,-0.012290076352655888,0.1890430599451065,0.08720255643129349,0.00901348702609539,-0.02646096795797348,-0.14469942450523376,-0.01924033835530281,-0.04436318576335907,0.09124632924795151,0.042175356298685074,0.015605177730321884,-0.006380651146173477,-0.13473927974700928,0.03378351032733917,-0.14802628755569458,0.11967231333255768,0.00951322354376316,-0.06291075795888901,-0.058897715061903,-0.11289568245410919,0.08082519471645355,0.06921567767858505,-0.05236513540148735,-0.09135395288467407,-0.0021475169342011213,0.03064177930355072,-0.2501703202724457,-0.0929994210600853,-0.008894887752830982,0.023762162774801254,0.024203376844525337,-0.026695622131228447,-0.08181069791316986,-0.1300426572561264,-0.02976303920149803,-0.1069074273109436,0.06051544472575188,-0.02582123875617981,0.003272607224062085,0.006799677852541208,0.10999413579702377,0.04435271397233009,-0.10024335980415344,-0.019173044711351395,0.03517730534076691,-0.01181758288294077,-0.09531481564044952,-0.11153952032327652,-0.14521722495555878,-0.0370597168803215,0.12967154383659363,0.052344076335430145,-0.06392255425453186,-0.1855209916830063,-0.01827162317931652,-0.005918879061937332,-0.018194112926721573,0.06247609853744507,-0.09873981773853302,-0.03901723027229309,-0.0718989148736,0.1033327579498291,-0.09432269632816315,-0.09584349393844604,0.024219119921326637,-0.056772179901599884,-0.07406851649284363,-0.009952411986887455,-0.09562183916568756,0.025532018393278122,0.006758113857358694,-0.05812198296189308,-0.014248793944716454,-0.2165580540895462,0.0422540120780468,-0.07641927897930145,-0.08996794372797012,-0.07645019143819809,0.24080996215343475,-0.02195209078490734,-0.08259177953004837,-0.09281881153583527,0.009645901620388031,-0.0049717421643435955,-0.045649949461221695,0.16704608500003815,-0.1718728393316269,-0.11640264093875885,0.04852009937167168,0.06886675953865051,0.0007055341266095638,-0.055429790169000626,-0.04781020060181618,0.08332237601280212,0.02155170403420925,0.13379274308681488,0.00919745396822691,-0.020628569647669792,-0.016711870208382607,-0.07827701419591904,-0.04147414490580559,0.076485775411129,0.000363872735761106,-0.03586097061634064,0.04584592580795288,-0.05192664638161659,0.014177912846207619,-0.06490036845207214,-0.1135244145989418,0.08984948694705963,0.1106756329536438,0.08146379142999649,-0.044969573616981506,-0.016313042491674423,-0.032646048814058304,-0.01056097075343132,0.010163038037717342,0.14048172533512115,0.04865257441997528,-0.08281254768371582,-0.04058024287223816,-0.0559767484664917,-0.011912941932678223,-0.05721597746014595,0.17106148600578308,-0.03437269106507301,0.026278769597411156,0.15685692429542542,0.04432065784931183,-0.023561734706163406,0.0017557427054271102,0.012602487578988075,0.004875647369772196,0.03182976320385933,-0.1423465758562088,0.02827967144548893,-0.15613383054733276,-0.0005407157586887479,-0.012426003813743591,0.004829194396734238,-0.083460234105587,0.2225043773651123,-0.04726048558950424,0.14280258119106293,0.09305959194898605,-0.05359799042344093,-0.009551947936415672,-0.14406618475914001,0.0036983254831284285,0.008836423978209496,-0.10546068847179413,0.012377966195344925,0.05002133175730705,-0.12111058831214905,-0.024345342069864273,0.005430370103567839,-0.05019329860806465,-0.017571106553077698,-0.07609221339225769,-0.18161313235759735,0.10832281410694122,-0.04920826107263565,0.22153007984161377,0.14003919064998627,0.047308724373579025,0.025413548573851585,-0.029874609783291817,-0.08089268952608109,0.09008924663066864,0.11200696229934692,-0.028897633776068687,-0.05605120211839676,-0.13433809578418732,0.025695716962218285,-0.04830227419734001,-0.06217484921216965,0.012883556075394154,-0.0769651010632515,-0.009993408806622028,-0.08839623630046844,0.11973926424980164,-0.03233372047543526,-0.007009698078036308,-0.052028726786375046,-0.1665414422750473,-0.04241539537906647,0.03641872480511665,0.11462380737066269,-0.11079318821430206,-0.032352298498153687,0.016036735847592354
0.12984134256839752,-0.09783097356557846,0.010118798352777958,-0.06575094163417816,0.03362433984875679,-0.08371054381132126,0.13479681313037872,-0.1117541715502739,0.010029315948486328,0.03398841246962547,-0.030422789976000786,0.03324071690440178,0.13492123782634735,0.16261166334152222,0.06996504962444305,0.11543407291173935,0.11125622689723969,0.014058325439691544,-0.0953260287642479,-0.03623589873313904,0.040258731693029404,-0.09961743652820587,0.06655089557170868,0.04116663336753845,-0.1355706751346588,-0.03269511088728905,-0.16212736070156097,-0.1595701277256012,-0.1117279902100563,0.08996572345495224,-0.072560615837574,-0.061196133494377136,-0.08417239785194397,0.006799840833991766,0.010906018316745758,-0.14839071035385132,-0.03110094554722309,-0.0839509442448616,0.044706378132104874,0.024780509993433952,0.009106716141104698,-0.01570981554687023,0.08475576341152191,0.039905861020088196,0.0262141115963459,-0.015131527557969093,0.017664464190602303,0.12407512217760086,-0.008314942009747028,0.013253345154225826,0.04809291288256645,-0.06887275725603104,-0.08939822763204575,0.00980581995099783,0.013865265995264053,-0.04869356006383896,0.003475408535450697,0.13778333365917206,0.10171683877706528,-0.040905971080064774,-0.083542600274086,-0.03490377962589264,0.08089582622051239,0.025486428290605545,-6.43207531538792e-05,-0.08510472625494003,0.05518537014722824,0.04345598444342613,0.019718168303370476,-0.06009489670395851,-0.01690717414021492,-0.01680845580995083,0.1306150108575821,-0.027731502428650856,0.07776447385549545,-0.019144117832183838,-0.023643048480153084,0.0111861452460289,0.04047996178269386,0.11316058039665222,0.02440136857330799,-0.05971570685505867,0.018551424145698547,0.03919330984354019,0.044627945870161057,-0.2504694163799286,-0.00851392187178135,0.10092650353908539,0.06874475628137589,0.1390291005373001,0.019320286810398102,-0.1215151697397232,0.09347626566886902,-0.03241404891014099,0.06851863116025925,0.023559488356113434,-0.1293894201517105,-0.021282363682985306,-0.005239276681095362,0.026283085346221924,0.14183159172534943,-0.01727534644305706,-0.09141562134027481,-0.02683247998356819,0.06271108984947205,0.030833322554826736,-0.005601177923381329,-0.021739013493061066,-0.1626572161912918,0.04505542665719986,-0.06504697352647781,0.051121294498443604,0.11003872007131577,-0.0028252333868294954,-0.08729294687509537,0.090006522834301,-0.07487605512142181,-0.03339877352118492,-0.02840576320886612,-0.020916974171996117,-0.008005364798009396,0.02397027797996998,0.05584428086876869,0.08492215722799301,-0.012915799394249916,0.10016954690217972,-0.06405869871377945,0.024786466732621193,0.16562359035015106,0.023578833788633347,-0.1716366559267044,0.0014189047506079078,0.02126266248524189,0.0029580574482679367,-0.10412705689668655,0.10727594792842865,-0.1729498952627182,-0.15122753381729126,-0.04047504439949989,-0.01790173165500164,-0.016080161556601524,-0.0434485599398613,-0.035223089158535004,0.11224548518657684,0.0771455466747284,0.044181857258081436,0.15163525938987732,-0.02034217305481434,0.01339023932814598,0.07607687264680862,-0.1247316300868988,-0.14769606292247772,-0.006090064998716116,0.008927938528358936,0.012811669148504734,-0.09856721013784409,-0.09692467004060745,-0.15543627738952637,-0.024236848577857018,0.0784587636590004,0.031072067096829414,0.12304196506738663,0.11761680990457535,-0.008303666487336159,-0.027773495763540268,-0.043412309139966965,-0.041043609380722046,0.05158689618110657,-0.09868235141038895,0.013413067907094955,-0.0529729500412941,0.06125490739941597,-0.020466353744268417,0.013069555163383484,-0.019450366497039795,0.1155143454670906,0.0012863045558333397,-0.0189517792314291,-0.11749599874019623,-0.010577220469713211,-0.016101274639368057,0.02596234902739525,-0.023541850969195366,0.054606955498456955,0.12613748013973236,0.06858348846435547,0.005435245577245951,0.10590477287769318,0.0086439810693264,0.046329643577337265,-0.014764047227799892,0.02556423284113407,-0.24967491626739502,0.0069385189563035965,-0.0851818174123764,-0.03687671571969986,-0.016639484092593193,-0.16701537370681763,0.2780636250972748,0.008758571930229664,0.003275873837992549,-0.013603972271084785,-0.09558843821287155,-0.013462301343679428,0.06532324850559235,-0.01016702875494957,0.0066423420794308186,-0.12567773461341858,0.17092838883399963,-0.2550143897533417,-0.010423796251416206,-0.1455611139535904,0.14160999655723572,0.06169215217232704,-0.0286883395165205,0.002678206190466881,-0.02190374955534935,0.04939109459519386,0.014202785678207874,-0.03552258759737015,-0.034274663776159286,0.08629346638917923,-0.09142511337995529,0.07553718984127045,-0.03998512029647827,0.02564854547381401,-0.08125965297222137,0.047067731618881226,-0.0756072849035263,0.10432087630033493,-0.07712467014789581,-0.01585102267563343,-0.044076401740312576,0.10498432070016861,-0.07047263532876968,0.19830647110939026,-0.015276134945452213,-0.04367561265826225,0.006218249443918467,0.142310231924057,0.27486950159072876,0.18427594006061554,0.0874851867556572,-0.0055885291658341885,0.013184355571866035,-0.06860440224409103,0.1247304305434227,0.1198660209774971,-0.08009746670722961,0.04059968888759613,-0.03802443668246269,-0.06363201886415482,-0.03474315628409386,-0.03521038219332695,-0.026044487953186035,0.07778146862983704,0.14259615540504456,0.02612139657139778,-0.009337966330349445,0.07764459401369095,0.149358868598938,0.18659095466136932,-0.0318366140127182,0.011419884860515594,-0.08848479390144348,-0.00202626409009099,0.13168872892856598,0.06322822719812393,-0.0608861930668354,-0.04254594445228577,-0.050895415246486664,0.0011192342499271035,-0.08366545289754868,-0.2067842185497284,0.02967386692762375,0.042134061455726624,0.07937578111886978,0.09106280654668808,-0.0005018594674766064,-0.003533104667440057,-0.06450093537569046,0.029094917699694633,0.10259927064180374,0.09837738424539566,-0.03396997228264809,-0.11042030900716782,-0.07584621757268906,-0.0038156642112880945,-0.12359695136547089,0.032613206654787064,-0.015167362056672573,-0.13680876791477203,0.031764641404151917,-0.04993313178420067,-0.011428168043494225,-0.01719704642891884,0.08612684160470963,-0.025675706565380096,-0.016505327075719833,0.013473797589540482,0.17971999943256378,-0.01919112727046013,0.029774921014904976,0.031427785754203796,-0.030396664515137672,0.0042707184329628944,-0.07797039300203323,-0.11751340329647064,-0.09637975692749023,-0.0008288105600513518,-0.17217883467674255,-0.10430816560983658,-0.03364305943250656,0.13036389648914337,-0.03576108440756798,-0.10196343809366226,0.17712603509426117,0.023320302367210388,-0.08182874321937561,-0.053514860570430756,0.030943337827920914,-0.013398468494415283,-0.0030546921771019697,-0.022661825641989708,0.023151196539402008,0.10948383063077927,-0.008850282058119774,0.0018973271362483501,-0.06483782082796097,-0.017530424520373344,-0.07210477441549301,0.10866039991378784,0.019478479400277138,-0.08710873872041702,-0.031507305800914764,0.029495060443878174,0.11847490072250366,0.02497037872672081,0.1534331738948822,0.09314226359128952,-0.15770277380943298,-0.10607723891735077,-0.20286791026592255,0.05058299005031586,0.008407306857407093,0.2337128072977066,-0.011606689542531967,0.054624155163764954,-0.03529050573706627,0.18232101202011108,0.02629202790558338,-0.2330510914325714,0.20480915904045105,-0.060104597359895706,0.21728168427944183,0.13176554441452026,-0.007092094514518976,0.007235355209559202,-0.01832370087504387,-0.0553065724670887,0.0914183109998703,0.04057379439473152,0.020824715495109558,0.022642914205789566,0.019033951684832573,-0.13166111707687378,0.10821829736232758,0.06373115628957748,-0.01539029274135828,0.058464568108320236,-0.09800355136394501,-0.09971744567155838,-0.16910572350025177,-0.01582426205277443,0.0746450126171112,-0.02940373867750168,0.10311006009578705,0.0638488307595253,0.043078117072582245,-0.0373317115008831,-0.06638911366462708,-0.13039177656173706,-0.05162014812231064,-0.056391216814517975,0.027524156495928764,-0.15171748399734497,-0.14284197986125946,-0.10854318737983704,-0.02829437144100666,-0.011749688535928726,0.07974787801504135,-0.2923167645931244,-0.04947471246123314,0.012059492990374565,0.03085927851498127,-0.01867753081023693,0.025894325226545334,-0.015990406274795532,-0.016254352405667305,0.12321975082159042,0.03148944675922394,-0.011000953614711761,-0.02497219480574131,-0.009141824208199978,0.0071923574432730675,0.022714313119649887,0.141922727227211,-0.038007061928510666,0.18894363939762115,0.029382577165961266,0.0437355674803257,0.05684095248579979,0.06818920373916626,-0.034791119396686554,-0.07372884452342987,0.13031157851219177,0.05321470648050308,-0.050050441175699234,0.0565929152071476,-0.09993933886289597,-0.040150970220565796,0.02519041858613491,0.012717008590698242,0.008629093877971172,0.057893671095371246,0.042976014316082,0.017824925482273102,-0.08516521006822586,0.015825346112251282,-0.08212476223707199,-0.012163429521024227,0.01035224087536335,-0.03959964960813522,0.006483119912445545,0.16376157104969025,-0.02838793210685253,-0.12939563393592834,0.0023179021663963795,0.008283320814371109,0.03149249404668808,-0.0608779676258564,0.04879005253314972,0.03395719826221466,0.22597149014472961,-0.0034972024150192738,0.03002406843006611,0.03702519088983536,-0.015378938056528568,0.007753573823720217,-0.009385189041495323,0.04651251435279846,0.021760376170277596,-0.008420740254223347,-0.10683035850524902,-0.09020797908306122,-0.07112500071525574,-0.00035516786738298833,0.13169638812541962,-0.00690446188673377,-0.003239581361413002,0.044826261699199677,0.004925426095724106,0.019479433074593544,0.045209042727947235,0.06146382540464401,0.12403451651334763,-0.15481555461883545,0.09843280166387558,-0.052464809268713,0.04943947121500969,-0.042447928339242935,0.19017647206783295,-0.10317733883857727,-0.021897202357649803,0.1222006306052208,-0.09698223322629929,0.17417402565479279,0.1002902165055275,0.08003214746713638,0.044179413467645645,0.0624404177069664,0.12964415550231934,0.07172635942697525,0.008628549054265022,0.1410985141992569,0.05924668908119202,-0.0034870041999965906,-0.045300859957933426,0.09772416204214096,0.06150622293353081,0.035781778395175934,0.004539804067462683,-0.06220470368862152,-0.16478002071380615,-0.017998749390244484,0.09412901848554611,-0.03649022430181503,-0.03834008052945137,-0.0040745921432971954,-0.1062888503074646,-0.022582583129405975,-0.16895757615566254,0.027188293635845184,0.0954909473657608,0.30002519488334656,0.06213030964136124,0.012084297835826874,0.09172862768173218,-0.06667143106460571,0.10388399660587311,0.11436473578214645,-0.17436514794826508,-0.003277466632425785,0.06321197748184204,0.008519449271261692,-0.14381451904773712,0.023013310506939888,-0.05868025869131088,-0.1234966367483139,0.03191483020782471,0.11182401329278946,0.026036875322461128,0.05169352516531944,0.014815161935985088,-0.026312781497836113,-0.10546626150608063,-0.0071952310390770435,0.23812362551689148,-0.0033676831517368555,0.06876268237829208,0.05628051981329918,0.10193583369255066,0.1300293356180191,-0.11282713711261749,-0.11344464123249054,0.029617762193083763,0.03356277942657471,0.10724927484989166,-0.12445402890443802,0.03518851101398468,0.05893193930387497,-0.13981010019779205,-0.014616542495787144,-0.011325592175126076,0.10680324584245682,-0.07133430987596512,-0.02577372081577778,-0.09231483936309814,0.0033237480092793703,0.01161397248506546,-0.0110152717679739,-0.15272371470928192,-0.02901310659945011,0.008164159022271633,-0.013264444656670094,-0.028553668409585953,0.014774871990084648,-0.008315812796354294,0.08682835102081299,-0.00176800019107759,-0.17913027107715607,0.07924123853445053,0.0071248929016292095,0.12407033890485764,-0.19270631670951843,0.0055623603984713554,-0.002323611406609416,-0.0071159289218485355,0.08151791244745255,-0.20268169045448303,-0.013253926299512386,-0.029347790405154228,-0.07927250862121582,-0.12307717651128769,-0.15226559340953827,-0.082029789686203,0.047704584896564484,0.030008753761649132,0.027734287083148956,0.03472186252474785,0.3012697994709015,-0.19519080221652985,0.03042496368288994,0.003665982047095895,-0.1440630853176117,-0.1177905946969986,0.042648546397686005,0.18538708984851837,0.018974125385284424,0.09189256280660629,0.12897156178951263,-0.06095707789063454,-0.14033916592597961,0.040225427597761154,0.033381152898073196,0.005928440950810909,0.02380063757300377,0.025569429621100426,0.08019975572824478,0.014684770256280899,0.004683705046772957,-0.08234889060258865,-0.21057571470737457,-0.14281636476516724,0.13061802089214325,-0.05463504046201706,-0.032628580927848816,-0.026271454989910126,0.019210373982787132,0.012082904577255249,-0.001481401501223445,-0.07378034293651581,0.15742696821689606,-0.04067289084196091,-0.18836620450019836,0.18621991574764252,-0.055250562727451324,-0.028535766527056694,-0.002438944997265935,0.12813960015773773,0.10522410273551941,0.05040665343403816,-0.01592291332781315,0.025941845029592514,-0.03416769951581955,-0.11240558326244354,0.19293074309825897,0.030847664922475815,0.07641687989234924,-0.010403526946902275,0.03995049372315407,-0.009260138496756554,0.14452627301216125,0.066852867603302,0.07721003890037537,-0.08102837949991226,-0.042273588478565216,-0.0048947385512292385,0.14657682180404663,-0.10339793562889099,-0.08905158936977386,0.044772129505872726,-0.06831184774637222,-0.07871202379465103,-0.0036598157603293657,-0.01356460526585579,-0.004487828351557255,-0.17713116109371185,-0.011749335564672947,0.2633185088634491,-0.0965866893529892,-0.00039942338480614126,-0.006324782967567444,-0.03176489099860191,-0.11642929166555405,-0.08781876415014267,-0.04198295995593071,0.04369962960481644,0.19063271582126617,0.00840643048286438,0.07745055854320526,-0.00937598291784525,-0.01622486300766468,0.020733417943120003,-0.05261903256177902,-0.02968749590218067,0.19968605041503906,-0.15496663749217987,0.1212627962231636,0.14644500613212585,0.11094684898853302,0.04508049786090851,0.045382868498563766,-0.07431718707084656,0.10754825919866562,0.01753230020403862,0.019310055300593376,0.027014128863811493,-0.12286342680454254,0.17567119002342224,-0.029876967892050743,0.09198428690433502,-0.005639742594212294,0.13768631219863892,0.09302503615617752,0.06508045643568039,-0.05460416525602341,-0.15345504879951477,0.006214081775397062,0.06839454174041748,-0.007013973314315081,0.04181639477610588,0.16599410772323608,0.10157787799835205,-0.1154947578907013,-0.18996930122375488,0.05023283138871193,0.08482103049755096,-0.038535330444574356,-0.07576889544725418,-0.010752902366220951,0.10241276770830154,0.022459790110588074,-0.2689899802207947,0.06703997403383255,0.08506891131401062,0.002703909296542406,0.04125869274139404,-0.028555085882544518,0.01938529685139656,-0.037389352917671204,-0.005343133583664894,0.06387556344270706,-0.04262438043951988,0.08664138615131378,0.11185135692358017,0.010720458813011646,0.0011317301541566849,-0.0006565532530657947,-0.004875923041254282,-0.17511139810085297,-0.030563771724700928,-0.005852526985108852,-0.08222227543592453,0.08617784827947617,0.0030297418124973774,-0.17140662670135498,0.13489727675914764,-0.2116907238960266,0.21806155145168304,-0.01950339414179325,0.13364630937576294,-0.009007897228002548,-0.009141551330685616,-0.2049054503440857,-0.14088307321071625,-0.06116759404540062,-0.012319059111177921,-0.03709409013390541,-0.04181886836886406,0.11584175378084183,0.032007597386837006,-0.05600491538643837,-0.005557031370699406,-0.07108689099550247,0.0070137339644134045,-0.03647847846150398,0.07450118660926819,0.1051129624247551,-0.005197442602366209,-0.1302637904882431,0.07150869816541672,0.19790299236774445,0.05017983913421631,-0.014259750954806805,0.03805738687515259,0.08071435242891312,0.16132080554962158,-0.005751996301114559,-0.009455161169171333,-0.013869751244783401,0.07754220068454742,-0.028269771486520767,0.02370597794651985,0.1095094159245491,0.21156828105449677,0.17638982832431793,-0.007473756093531847,0.09810645133256912,-0.01428576372563839,-0.015172597952187061,0.0316019132733345,-0.027541719377040863,0.060059480369091034,0.13951531052589417,0.019334126263856888,0.03491971641778946,0.024157147854566574,0.10467303544282913,-0.09075523912906647,0.10142018646001816,0.059161972254514694,-0.07807643711566925,0.1419273316860199
